{"learner":{"attributes":{"scikit_learn":"{\"_estimator_type\": \"regressor\"}"},"feature_names":["pm10","no2","o3","co","temperature","humidity","wind_speed","hour","day","month","day_of_week","station_code"],"feature_types":["float","float","float","float","float","int","float","int","int","int","int","int"],"gradient_booster":{"model":{"cats":{"enc":[],"feature_segments":[],"sorted_idx":[]},"gbtree_model_param":{"num_parallel_tree":"1","num_trees":"300"},"iteration_indptr":[0,1,2,3,4,5,6,7,8,9,10,11,12,13,14,15,16,17,18,19,20,21,22,23,24,25,26,27,28,29,30,31,32,33,34,35,36,37,38,39,40,41,42,43,44,45,46,47,48,49,50,51,52,53,54,55,56,57,58,59,60,61,62,63,64,65,66,67,68,69,70,71,72,73,74,75,76,77,78,79,80,81,82,83,84,85,86,87,88,89,90,91,92,93,94,95,96,97,98,99,100,101,102,103,104,105,106,107,108,109,110,111,112,113,114,115,116,117,118,119,120,121,122,123,124,125,126,127,128,129,130,131,132,133,134,135,136,137,138,139,140,141,142,143,144,145,146,147,148,149,150,151,152,153,154,155,156,157,158,159,160,161,162,163,164,165,166,167,168,169,170,171,172,173,174,175,176,177,178,179,180,181,182,183,184,185,186,187,188,189,190,191,192,193,194,195,196,197,198,199,200,201,202,203,204,205,206,207,208,209,210,211,212,213,214,215,216,217,218,219,220,221,222,223,224,225,226,227,228,229,230,231,232,233,234,235,236,237,238,239,240,241,242,243,244,245,246,247,248,249,250,251,252,253,254,255,256,257,258,259,260,261,262,263,264,265,266,267,268,269,270,271,272,273,274,275,276,277,278,279,280,281,282,283,284,285,286,287,288,289,290,291,292,293,294,295,296,297,298,299,300],"tree_info":[0,0,0,0,0,0,0,0,0,0,0,0,0,0,0,0,0,0,0,0,0,0,0,0,0,0,0,0,0,0,0,0,0,0,0,0,0,0,0,0,0,0,0,0,0,0,0,0,0,0,0,0,0,0,0,0,0,0,0,0,0,0,0,0,0,0,0,0,0,0,0,0,0,0,0,0,0,0,0,0,0,0,0,0,0,0,0,0,0,0,0,0,0,0,0,0,0,0,0,0,0,0,0,0,0,0,0,0,0,0,0,0,0,0,0,0,0,0,0,0,0,0,0,0,0,0,0,0,0,0,0,0,0,0,0,0,0,0,0,0,0,0,0,0,0,0,0,0,0,0,0,0,0,0,0,0,0,0,0,0,0,0,0,0,0,0,0,0,0,0,0,0,0,0,0,0,0,0,0,0,0,0,0,0,0,0,0,0,0,0,0,0,0,0,0,0,0,0,0,0,0,0,0,0,0,0,0,0,0,0,0,0,0,0,0,0,0,0,0,0,0,0,0,0,0,0,0,0,0,0,0,0,0,0,0,0,0,0,0,0,0,0,0,0,0,0,0,0,0,0,0,0,0,0,0,0,0,0,0,0,0,0,0,0,0,0,0,0,0,0,0,0,0,0,0,0,0,0,0,0,0,0,0,0,0,0,0,0,0,0,0,0,0,0,0,0,0,0,0,0],"trees":[{"base_weights":[1.7493202E-6,-5.7410824E1,4.4908328E2,-1.16162346E2,6.641941E1,3.2323483E2,7.274984E2,-1.3851566E2,-7.465368E1,2.0101526E1,1.2248204E2,2.5279079E2,4.290379E2,6.2010077E2,8.6074365E2,-1.5576894E2,-1.2379377E2,-9.0485596E1,-5.152531E1,-2.9306142E0,4.3128307E1,9.409933E1,1.5268773E2,2.2307773E2,2.9390622E2,3.866228E2,4.7088016E2,5.7261725E2,6.899294E2,7.9472235E2,4.4522747E1,-1.6384576E2,-1.4766164E2,-1.3142146E2,-1.1424012E2,-9.8646935E1,-8.11975E1,-6.0904457E1,-3.8050804E1,-1.3676423E1,7.8511825E0,3.1952518E1,5.679738E1,8.026284E1,1.0673466E2,1.3648058E2,1.732116E2,2.3070021E2,8.92496E0,2.7239886E2,3.163275E2,1.6404509E1,4.0221768E2,4.4743475E2,2.5079521E1,2.6802145E1,2.9758894E1,3.1700394E1,3.6057762E1,3.5937656E1,4.1413513E1,-8.422119E0,-7.978299E0,-7.5726876E0,-7.1736145E0,-6.800564E0,-6.3681464E0,-5.9118896E0,-5.509855E0,-5.19017E0,-4.7394176E0,-4.308113E0,-3.8285336E0,-3.4076822E0,-2.818831E0,-2.2333896E0,-1.5549881E0,-1.0256404E0,-3.2715622E-1,2.119158E-2,7.780471E-1,1.1191907E0,2.0249965E0,2.4149797E0,3.446697E0,3.169955E0,4.2405925E0,4.7128205E0,5.8219995E0,5.718009E0,7.233546E0,9.416377E0,7.50905E0,1.0231578E1,1.2080303E1,1.3005788E1,1.4682408E1,1.4445849E1,1.6531958E1,1.8049486E1,2.0623981E1,1.9596334E1,2.274774E1],"categories":[],"categories_nodes":[],"categories_segments":[],"categories_sizes":[],"default_left":[0,0,0,0,0,0,0,0,0,0,0,0,0,0,0,0,0,0,0,0,0,0,0,0,0,0,0,0,0,0,0,0,0,0,0,0,0,0,0,0,0,0,0,0,0,0,0,0,0,0,0,0,0,0,0,0,0,0,0,0,0,0,0,0,0,0,0,0,0,0,0,0,0,0,0,0,0,0,0,0,0,0,0,0,0,0,0,0,0,0,0,0,0,0,0,0,0,0,0,0,0,0,0],"id":0,"left_children":[1,3,5,7,9,11,13,15,17,19,21,23,25,27,29,31,33,35,37,39,41,43,45,47,49,51,53,55,57,59,-1,61,63,65,67,69,71,73,75,77,79,81,83,85,87,89,91,93,-1,95,97,-1,99,101,-1,-1,-1,-1,-1,-1,-1,-1,-1,-1,-1,-1,-1,-1,-1,-1,-1,-1,-1,-1,-1,-1,-1,-1,-1,-1,-1,-1,-1,-1,-1,-1,-1,-1,-1,-1,-1,-1,-1,-1,-1,-1,-1,-1,-1,-1,-1,-1,-1],"loss_changes":[1.2375992E9,3.0964813E8,1.9040717E8,2.6773152E7,3.5561964E7,2.7833568E7,2.369344E7,4.746048E6,3.695808E6,3.9783275E6,5.297584E6,2.686848E6,2.47472E6,2.724992E6,7.69408E5,5.41168E5,7.2304E5,4.46664E5,5.16976E5,4.3469494E5,5.711985E5,5.50358E5,9.74264E5,4.04636E5,3.68088E5,5.51728E5,3.14864E5,1.47984E5,1.9936E5,2.3984E4,0E0,5.8032E4,4.688E4,8.7456E4,5.9768E4,5.359E4,5.7974E4,7.5622E4,7.629625E4,9.149703E4,1.0724717E5,1.680665E5,1.70554E5,1.11995E5,1.91028E5,2.88006E5,4.31244E5,2.6812E5,0E0,5.0988E4,8.2964E4,0E0,9.944E4,2.856E3,0E0,0E0,0E0,0E0,0E0,0E0,0E0,0E0,0E0,0E0,0E0,0E0,0E0,0E0,0E0,0E0,0E0,0E0,0E0,0E0,0E0,0E0,0E0,0E0,0E0,0E0,0E0,0E0,0E0,0E0,0E0,0E0,0E0,0E0,0E0,0E0,0E0,0E0,0E0,0E0,0E0,0E0,0E0,0E0,0E0,0E0,0E0,0E0,0E0],"parents":[2147483647,0,0,1,1,2,2,3,3,4,4,5,5,6,6,7,7,8,8,9,9,10,10,11,11,12,12,13,13,14,14,15,15,16,16,17,17,18,18,19,19,20,20,21,21,22,22,23,23,24,24,25,25,26,26,27,27,28,28,29,29,31,31,32,32,33,33,34,34,35,35,36,36,37,37,38,38,39,39,40,40,41,41,42,42,43,43,44,44,45,45,46,46,47,47,49,49,50,50,52,52,53,53],"right_children":[2,4,6,8,10,12,14,16,18,20,22,24,26,28,30,32,34,36,38,40,42,44,46,48,50,52,54,56,58,60,-1,62,64,66,68,70,72,74,76,78,80,82,84,86,88,90,92,94,-1,96,98,-1,100,102,-1,-1,-1,-1,-1,-1,-1,-1,-1,-1,-1,-1,-1,-1,-1,-1,-1,-1,-1,-1,-1,-1,-1,-1,-1,-1,-1,-1,-1,-1,-1,-1,-1,-1,-1,-1,-1,-1,-1,-1,-1,-1,-1,-1,-1,-1,-1,-1,-1],"split_conditions":[7.313183E2,2.9665982E2,1.3668722E3,1.5218475E2,4.8024E2,1.0021908E3,1.786295E3,8.57E1,2.17235E2,3.8497406E2,5.8474E2,8.5136E2,1.1681719E3,1.5808806E3,3.51555E2,5.745506E1,1.20175E2,1.822572E2,2.5927505E2,3.42125E2,4.3438165E2,1.0172975E2,6.521971E2,2.323E1,7.11E0,7.11E0,2.4872063E2,2.7027356E2,3.147E2,1.90095E3,4.4522747E1,4.1413708E1,7.244267E1,1.0162841E2,1.3517735E2,3.0991104E1,3.83064E1,4.386018E1,2.63E0,6.41E1,7.2464836E1,7.997102E1,9.284931E1,8.178069E1,5.3052496E2,1.08E2,2.29E1,1.3631119E2,8.92496E0,1.737E2,9.031596E2,1.6404509E1,1.04351E3,7.11E0,2.5079521E1,2.6802145E1,2.9758894E1,3.1700394E1,3.6057762E1,3.5937656E1,4.1413513E1,-8.422119E0,-7.978299E0,-7.5726876E0,-7.1736145E0,-6.800564E0,-6.3681464E0,-5.9118896E0,-5.509855E0,-5.19017E0,-4.7394176E0,-4.308113E0,-3.8285336E0,-3.4076822E0,-2.818831E0,-2.2333896E0,-1.5549881E0,-1.0256404E0,-3.2715622E-1,2.119158E-2,7.780471E-1,1.1191907E0,2.0249965E0,2.4149797E0,3.446697E0,3.169955E0,4.2405925E0,4.7128205E0,5.8219995E0,5.718009E0,7.233546E0,9.416377E0,7.50905E0,1.0231578E1,1.2080303E1,1.3005788E1,1.4682408E1,1.4445849E1,1.6531958E1,1.8049486E1,2.0623981E1,1.9596334E1,2.274774E1],"split_indices":[0,0,0,0,0,0,0,0,0,0,0,0,0,0,1,0,0,0,0,0,0,1,0,2,3,3,1,1,1,0,0,0,0,0,0,1,1,1,3,1,1,1,1,1,0,1,2,1,0,1,0,0,0,3,0,0,0,0,0,0,0,0,0,0,0,0,0,0,0,0,0,0,0,0,0,0,0,0,0,0,0,0,0,0,0,0,0,0,0,0,0,0,0,0,0,0,0,0,0,0,0,0,0],"split_type":[0,0,0,0,0,0,0,0,0,0,0,0,0,0,0,0,0,0,0,0,0,0,0,0,0,0,0,0,0,0,0,0,0,0,0,0,0,0,0,0,0,0,0,0,0,0,0,0,0,0,0,0,0,0,0,0,0,0,0,0,0,0,0,0,0,0,0,0,0,0,0,0,0,0,0,0,0,0,0,0,0,0,0,0,0,0,0,0,0,0,0,0,0,0,0,0,0,0,0,0,0,0,0],"sum_hessian":[4.8E4,4.256E4,5.44E3,2.8865E4,1.3695E4,3.748E3,1.692E3,1.876E4,1.0105E4,7.5E3,6.195E3,2.252E3,1.496E3,9.4E2,7.52E2,8.633E3,1.0127E4,5.997E3,4.108E3,3.75E3,3.75E3,3.196E3,2.999E3,1.311E3,9.41E2,7.48E2,7.48E2,5.65E2,3.75E2,2.42E2,5.1E2,4.315E3,4.318E3,5.624E3,4.503E3,3.187E3,2.81E3,2.42E3,1.688E3,1.878E3,1.872E3,2.065E3,1.685E3,1.529E3,1.667E3,1.68E3,1.319E3,1.116E3,1.95E2,4.87E2,4.54E2,1.62E2,5.86E2,4.33E2,3.15E2,2.25E2,3.4E2,1.42E2,2.33E2,8.1E1,1.61E2,2.062E3,2.253E3,2.248E3,2.07E3,2.624E3,3E3,2.25E3,2.253E3,1.353E3,1.834E3,1.347E3,1.463E3,9.25E2,1.495E3,8.62E2,8.26E2,9.58E2,9.2E2,9.54E2,9.18E2,9.76E2,1.089E3,9.94E2,6.91E2,3.28E2,1.201E3,7.34E2,9.33E2,4.58E2,1.222E3,7.92E2,5.27E2,3.35E2,7.81E2,3.17E2,1.7E2,1.63E2,2.91E2,1.24E2,4.62E2,5.8E1,3.75E2],"tree_param":{"num_deleted":"0","num_feature":"12","num_nodes":"103","size_leaf_vector":"1"}},{"base_weights":[8.983977E-3,-5.4540928E1,4.267134E2,-1.1035713E2,6.310255E1,3.0712976E2,6.912689E2,-1.319049E2,-7.14922E1,1.9097578E1,1.16365654E2,2.4693271E2,4.1901804E2,5.8922784E2,8.1786835E2,-1.4798409E2,-1.1791945E2,-8.5940056E1,-4.8155804E1,-2.784231E0,4.0974297E1,9.389088E1,1.5083025E2,2.1671672E2,2.9491916E2,3.9733252E2,4.7242825E2,5.440863E2,6.5561316E2,7.5530457E2,4.2300964E1,-1.5637361E2,-1.4091545E2,-1.2485274E2,-1.0884764E2,-9.3712975E1,-7.6014015E1,-5.62942E1,-3.489408E1,-1.299332E1,7.459049E0,3.0356419E1,5.3960987E1,7.771304E1,1.06383354E2,1.671359E2,1.342533E2,2.2361893E2,8.480989E0,2.6952737E2,3.1589032E2,1.6874262E1,4.0767297E2,2.224886E1,2.486765E1,2.546797E1,2.8275312E1,3.012646E1,3.426258E1,3.559122E1,4.067053E1,-8.041648E0,-7.6475573E0,-7.2409015E0,-6.832245E0,-6.4469347E0,-6.0364113E0,-5.67807E0,-5.293149E0,-4.9422865E0,-4.4906473E0,-4.044608E0,-3.582321E0,-3.0800197E0,-2.501855E0,-2.061179E0,-1.4342542E0,-9.744121E-1,-3.1081578E-1,2.0132964E-2,7.391872E-1,1.1044009E0,1.96691E0,2.2943523E0,3.274611E0,3.4462044E0,4.3783355E0,4.547766E0,5.809959E0,7.3079667E0,9.158622E0,6.0173993E0,7.0394435E0,9.854194E0,1.1683158E1,1.2688124E1,1.4441248E1,1.4772835E1,1.6843586E1,1.9179525E1,2.1086231E1],"categories":[],"categories_nodes":[],"categories_segments":[],"categories_sizes":[],"default_left":[0,0,0,0,0,0,0,0,0,0,0,0,0,0,0,0,0,0,0,0,0,0,0,0,0,0,0,0,0,0,0,0,0,0,0,0,0,0,0,0,0,0,0,0,0,0,0,0,0,0,0,0,0,0,0,0,0,0,0,0,0,0,0,0,0,0,0,0,0,0,0,0,0,0,0,0,0,0,0,0,0,0,0,0,0,0,0,0,0,0,0,0,0,0,0,0,0,0,0,0,0],"id":1,"left_children":[1,3,5,7,9,11,13,15,17,19,21,23,25,27,29,31,33,35,37,39,41,43,45,47,49,51,53,55,57,59,-1,61,63,65,67,69,71,73,75,77,79,81,83,85,87,89,91,93,-1,95,97,-1,99,-1,-1,-1,-1,-1,-1,-1,-1,-1,-1,-1,-1,-1,-1,-1,-1,-1,-1,-1,-1,-1,-1,-1,-1,-1,-1,-1,-1,-1,-1,-1,-1,-1,-1,-1,-1,-1,-1,-1,-1,-1,-1,-1,-1,-1,-1,-1,-1],"loss_changes":[1.1173276E9,2.7948006E8,1.7192211E8,2.416448E7,3.2099028E7,2.514736E7,2.13888E7,4.15824E6,3.467944E6,3.590859E6,4.78516E6,3.473984E6,1.329552E6,2.4632E6,6.87168E5,4.89968E5,6.1136E5,4.83504E5,4.23277E5,3.9235612E5,5.15591E5,7.5022E5,6.38168E5,4.5E5,4.15408E5,4.42896E5,3.3896E4,1.3296E5,1.78688E5,3.4912E4,0E0,3.552E4,5.848E4,7.9224E4,4.8644E4,6.2426E4,5.3817E4,7.79295E4,5.78065E4,8.2585125E4,9.680174E4,1.525625E5,1.539655E5,1.35908E5,3.09726E5,3.8632E5,9.3656E4,3.02032E5,0E0,5.813E4,1.18688E5,0E0,1.07256E5,0E0,0E0,0E0,0E0,0E0,0E0,0E0,0E0,0E0,0E0,0E0,0E0,0E0,0E0,0E0,0E0,0E0,0E0,0E0,0E0,0E0,0E0,0E0,0E0,0E0,0E0,0E0,0E0,0E0,0E0,0E0,0E0,0E0,0E0,0E0,0E0,0E0,0E0,0E0,0E0,0E0,0E0,0E0,0E0,0E0,0E0,0E0,0E0],"parents":[2147483647,0,0,1,1,2,2,3,3,4,4,5,5,6,6,7,7,8,8,9,9,10,10,11,11,12,12,13,13,14,14,15,15,16,16,17,17,18,18,19,19,20,20,21,21,22,22,23,23,24,24,25,25,26,26,27,27,28,28,29,29,31,31,32,32,33,33,34,34,35,35,36,36,37,37,38,38,39,39,40,40,41,41,42,42,43,43,44,44,45,45,46,46,47,47,49,49,50,50,52,52],"right_children":[2,4,6,8,10,12,14,16,18,20,22,24,26,28,30,32,34,36,38,40,42,44,46,48,50,52,54,56,58,60,-1,62,64,66,68,70,72,74,76,78,80,82,84,86,88,90,92,94,-1,96,98,-1,100,-1,-1,-1,-1,-1,-1,-1,-1,-1,-1,-1,-1,-1,-1,-1,-1,-1,-1,-1,-1,-1,-1,-1,-1,-1,-1,-1,-1,-1,-1,-1,-1,-1,-1,-1,-1,-1,-1,-1,-1,-1,-1,-1,-1,-1,-1,-1,-1],"split_conditions":[7.313183E2,2.9665982E2,1.3668722E3,1.5079E2,4.8024E2,1.04351E3,1.786295E3,8.57E1,2.1983643E2,3.8497406E2,6.052927E2,8.7782275E2,1.260295E3,1.5808806E3,3.51555E2,5.4758137E1,1.20175E2,1.8428232E2,2.632998E2,3.42125E2,4.3438165E2,1.0172975E2,2.22E1,2.323E1,7.11E0,7.11E0,2.4872063E2,2.7027356E2,3.147E2,2.00721E3,4.2300964E1,3.8447956E1,7.130205E1,1.02765E2,2.4485067E1,3.0991104E1,1.9990327E2,2.4085063E2,2.63E0,6.41E1,7.2464836E1,8.178069E1,9.284931E1,5.2472235E2,5.37795E2,1.26862625E2,1.1439053E2,1.3631119E2,8.480989E0,1.737E2,9.653986E2,1.6874262E1,1.1257E3,2.224886E1,2.486765E1,2.546797E1,2.8275312E1,3.012646E1,3.426258E1,3.559122E1,4.067053E1,-8.041648E0,-7.6475573E0,-7.2409015E0,-6.832245E0,-6.4469347E0,-6.0364113E0,-5.67807E0,-5.293149E0,-4.9422865E0,-4.4906473E0,-4.044608E0,-3.582321E0,-3.0800197E0,-2.501855E0,-2.061179E0,-1.4342542E0,-9.744121E-1,-3.1081578E-1,2.0132964E-2,7.391872E-1,1.1044009E0,1.96691E0,2.2943523E0,3.274611E0,3.4462044E0,4.3783355E0,4.547766E0,5.809959E0,7.3079667E0,9.158622E0,6.0173993E0,7.0394435E0,9.854194E0,1.1683158E1,1.2688124E1,1.4441248E1,1.4772835E1,1.6843586E1,1.9179525E1,2.1086231E1],"split_indices":[0,0,0,0,0,0,0,0,0,0,0,0,0,0,1,0,0,0,0,0,0,1,2,2,3,3,1,1,1,0,0,0,0,0,1,1,0,0,3,1,1,1,1,0,0,1,1,1,0,1,0,0,0,0,0,0,0,0,0,0,0,0,0,0,0,0,0,0,0,0,0,0,0,0,0,0,0,0,0,0,0,0,0,0,0,0,0,0,0,0,0,0,0,0,0,0,0,0,0,0,0],"split_type":[0,0,0,0,0,0,0,0,0,0,0,0,0,0,0,0,0,0,0,0,0,0,0,0,0,0,0,0,0,0,0,0,0,0,0,0,0,0,0,0,0,0,0,0,0,0,0,0,0,0,0,0,0,0,0,0,0,0,0,0,0,0,0,0,0,0,0,0,0,0,0,0,0,0,0,0,0,0,0,0,0,0,0,0,0,0,0,0,0,0,0,0,0,0,0,0,0,0,0,0,0],"sum_hessian":[4.8E4,4.256E4,5.44E3,2.8865E4,1.3695E4,3.748E3,1.692E3,1.8568E4,1.0297E4,7.5E3,6.195E3,2.439E3,1.309E3,9.4E2,7.52E2,8.633E3,9.935E3,6.358E3,3.939E3,3.75E3,3.75E3,3.752E3,2.443E3,1.5E3,9.39E2,9.37E2,3.72E2,5.65E2,3.75E2,2.42E2,5.1E2,3.938E3,4.695E3,5.624E3,4.311E3,3.561E3,2.797E3,2.439E3,1.5E3,1.878E3,1.872E3,2.065E3,1.685E3,1.638E3,2.114E3,1.227E3,1.216E3,1.305E3,1.95E2,4.31E2,5.08E2,1.43E2,7.94E2,1.86E2,1.86E2,2.25E2,3.4E2,1.42E2,2.33E2,1.46E2,9.6E1,1.69E3,2.248E3,2.436E3,2.259E3,2.81E3,2.814E3,1.657E3,2.654E3,1.527E3,2.034E3,1.313E3,1.484E3,1.315E3,1.124E3,7.4E2,7.6E2,9.58E2,9.2E2,9.54E2,9.18E2,1.077E3,9.88E2,9.94E2,6.91E2,8.7E2,7.68E2,8.26E2,1.288E3,5.36E2,6.91E2,3.95E2,8.21E2,3.64E2,9.41E2,2.45E2,1.86E2,2.65E2,2.43E2,3.03E2,4.91E2],"tree_param":{"num_deleted":"0","num_feature":"12","num_nodes":"101","size_leaf_vector":"1"}},{"base_weights":[1.699775E-2,-5.1814434E1,4.0545673E2,-1.04842026E2,5.99515E1,2.9182474E2,6.568453E2,-1.2501887E2,-6.737492E1,2.146518E1,1.1497009E2,2.2817288E2,3.874265E2,5.5989197E2,7.771324E2,-1.3971439E2,-1.109148E2,-8.117962E1,-4.575032E1,1.2719754E0,4.69771E1,9.598038E1,1.4782188E2,2.0121634E2,2.6547522E2,3.48948E2,4.253878E2,5.169769E2,6.230037E2,3.5071545E1,3.9891903E1,-1.469609E2,-1.3147473E2,-1.1781222E2,-1.0311834E2,-8.859769E1,-7.221605E1,-5.430004E1,-3.43236E1,-9.508225E0,1.4022528E1,3.547139E1,5.7731514E1,8.256441E1,1.110981E2,1.6251064E2,1.3067636E2,2.08061E2,8.059104E0,2.459914E2,2.857887E2,1.4809627E1,3.6300284E2,2.020016E1,2.2670584E1,2.4200207E1,2.6865692E1,2.863067E1,3.2556774E1,-7.5689597E0,-7.124392E0,-6.753814E0,-6.4047074E0,-6.0370474E0,-5.6738863E0,-5.313583E0,-4.932827E0,-4.67386E0,-4.254554E0,-3.8746808E0,-3.4159622E0,-2.958085E0,-2.4283636E0,-2.2543535E0,-1.5357183E0,-9.4903326E-1,-2.1218625E-1,-4.2463254E-4,8.93089E-1,1.4311432E0,2.2755756E0,2.475911E0,3.3491554E0,3.8263798E0,4.816062E0,5.1024785E0,6.1312227E0,7.2032013E0,8.942166E0,5.912612E0,6.7976975E0,9.230278E0,1.0893649E1,1.1420033E1,1.2906844E1,1.3061992E1,1.4929885E1,1.6053375E1,1.861074E1],"categories":[],"categories_nodes":[],"categories_segments":[],"categories_sizes":[],"default_left":[0,0,0,0,0,0,0,0,0,0,0,0,0,0,0,0,0,0,0,0,0,0,0,0,0,0,0,0,0,0,0,0,0,0,0,0,0,0,0,0,0,0,0,0,0,0,0,0,0,0,0,0,0,0,0,0,0,0,0,0,0,0,0,0,0,0,0,0,0,0,0,0,0,0,0,0,0,0,0,0,0,0,0,0,0,0,0,0,0,0,0,0,0,0,0,0,0,0,0],"id":2,"left_children":[1,3,5,7,9,11,13,15,17,19,21,23,25,27,29,31,33,35,37,39,41,43,45,47,49,51,53,55,57,-1,-1,59,61,63,65,67,69,71,73,75,77,79,81,83,85,87,89,91,-1,93,95,-1,97,-1,-1,-1,-1,-1,-1,-1,-1,-1,-1,-1,-1,-1,-1,-1,-1,-1,-1,-1,-1,-1,-1,-1,-1,-1,-1,-1,-1,-1,-1,-1,-1,-1,-1,-1,-1,-1,-1,-1,-1,-1,-1,-1,-1,-1,-1],"loss_changes":[1.0087391E9,2.5225165E8,1.5523475E8,2.1813344E7,2.8998308E7,2.2725152E7,1.9309056E7,3.873024E6,3.01314E6,4.1521898E6,3.502432E6,2.212064E6,2.038224E6,2.22656E6,6.20672E5,5.2904E5,5.02904E5,4.0366E5,3.830555E5,6.1867425E5,4.3858E5,7.15904E5,4.98324E5,3.25976E5,3.02528E5,4.4784E5,2.65664E5,1.19488E5,1.6016E5,0E0,0E0,7.484E4,3.5136E4,5.0728E4,5.2888E4,4.9708E4,5.2248E4,5.9892E4,6.4229125E4,1.2154669E5,1.1107728E5,1.1717075E5,1.36422E5,1.50253E5,1.62498E5,3.07756E5,4.6672E4,2.16852E5,0E0,4.5302E4,6.5068E4,0E0,1.07256E5,0E0,0E0,0E0,0E0,0E0,0E0,0E0,0E0,0E0,0E0,0E0,0E0,0E0,0E0,0E0,0E0,0E0,0E0,0E0,0E0,0E0,0E0,0E0,0E0,0E0,0E0,0E0,0E0,0E0,0E0,0E0,0E0,0E0,0E0,0E0,0E0,0E0,0E0,0E0,0E0,0E0,0E0,0E0,0E0,0E0,0E0],"parents":[2147483647,0,0,1,1,2,2,3,3,4,4,5,5,6,6,7,7,8,8,9,9,10,10,11,11,12,12,13,13,14,14,15,15,16,16,17,17,18,18,19,19,20,20,21,21,22,22,23,23,24,24,25,25,26,26,27,27,28,28,31,31,32,32,33,33,34,34,35,35,36,36,37,37,38,38,39,39,40,40,41,41,42,42,43,43,44,44,45,45,46,46,47,47,49,49,50,50,52,52],"right_children":[2,4,6,8,10,12,14,16,18,20,22,24,26,28,30,32,34,36,38,40,42,44,46,48,50,52,54,56,58,-1,-1,60,62,64,66,68,70,72,74,76,78,80,82,84,86,88,90,92,-1,94,96,-1,98,-1,-1,-1,-1,-1,-1,-1,-1,-1,-1,-1,-1,-1,-1,-1,-1,-1,-1,-1,-1,-1,-1,-1,-1,-1,-1,-1,-1,-1,-1,-1,-1,-1,-1,-1,-1,-1,-1,-1,-1,-1,-1,-1,-1,-1,-1],"split_conditions":[7.313183E2,2.9665982E2,1.3668722E3,1.5218475E2,4.96455E2,1.0021908E3,1.786295E3,8.911916E1,2.1983643E2,4.0235E2,6.193995E2,8.5136E2,1.1681719E3,1.5808806E3,3.34305E2,6.1079113E1,1.20175E2,1.8428232E2,2.5927505E2,3.55045E2,8.7E1,1.0920675E2,2.2797926E1,2.323E1,7.11E0,7.11E0,2.4872063E2,2.7027356E2,3.147E2,3.5071545E1,3.9891903E1,4.4110397E1,7.521E1,1.07180534E2,1.381352E2,3.0991104E1,3.78E1,4.7855E1,4.84826E1,6.0823406E1,6.4874275E1,4.4420816E2,4.591556E2,5.6128864E2,5.7649E2,1.3039E2,1.1439053E2,1.3631119E2,8.059104E0,1.5744588E2,9.031596E2,1.4809627E1,1.8969867E2,2.020016E1,2.2670584E1,2.4200207E1,2.6865692E1,2.863067E1,3.2556774E1,-7.5689597E0,-7.124392E0,-6.753814E0,-6.4047074E0,-6.0370474E0,-5.6738863E0,-5.313583E0,-4.932827E0,-4.67386E0,-4.254554E0,-3.8746808E0,-3.4159622E0,-2.958085E0,-2.4283636E0,-2.2543535E0,-1.5357183E0,-9.4903326E-1,-2.1218625E-1,-4.2463254E-4,8.93089E-1,1.4311432E0,2.2755756E0,2.475911E0,3.3491554E0,3.8263798E0,4.816062E0,5.1024785E0,6.1312227E0,7.2032013E0,8.942166E0,5.912612E0,6.7976975E0,9.230278E0,1.0893649E1,1.1420033E1,1.2906844E1,1.3061992E1,1.4929885E1,1.6053375E1,1.861074E1],"split_indices":[0,0,0,0,0,0,0,0,0,0,0,0,0,0,1,0,0,0,0,0,1,1,2,2,3,3,1,1,1,0,0,0,0,0,0,1,1,1,1,1,1,0,0,0,0,1,1,1,0,1,0,0,1,0,0,0,0,0,0,0,0,0,0,0,0,0,0,0,0,0,0,0,0,0,0,0,0,0,0,0,0,0,0,0,0,0,0,0,0,0,0,0,0,0,0,0,0,0,0],"split_type":[0,0,0,0,0,0,0,0,0,0,0,0,0,0,0,0,0,0,0,0,0,0,0,0,0,0,0,0,0,0,0,0,0,0,0,0,0,0,0,0,0,0,0,0,0,0,0,0,0,0,0,0,0,0,0,0,0,0,0,0,0,0,0,0,0,0,0,0,0,0,0,0,0,0,0,0,0,0,0,0,0,0,0,0,0,0,0,0,0,0,0,0,0,0,0,0,0,0,0],"sum_hessian":[4.8E4,4.256E4,5.44E3,2.8865E4,1.3695E4,3.748E3,1.692E3,1.876E4,1.0105E4,8.059E3,5.636E3,2.252E3,1.496E3,9.4E2,7.52E2,9.183E3,9.577E3,6.166E3,3.939E3,4.499E3,3.56E3,3.574E3,2.062E3,1.311E3,9.41E2,7.48E2,7.48E2,5.65E2,3.75E2,1.69E2,5.83E2,4.877E3,4.306E3,5.074E3,4.503E3,3.369E3,2.797E3,2.251E3,1.688E3,2.438E3,2.061E3,1.722E3,1.838E3,1.897E3,1.677E3,1.106E3,9.56E2,1.116E3,1.95E2,4.87E2,4.54E2,1.62E2,5.86E2,4.33E2,3.15E2,2.25E2,3.4E2,1.42E2,2.33E2,2.437E3,2.44E3,2.066E3,2.24E3,3.012E3,2.062E3,2.625E3,1.878E3,1.398E3,1.971E3,1.18E3,1.617E3,1.213E3,1.038E3,4.21E2,1.267E3,8.7E2,1.568E3,4.43E2,1.618E3,1.026E3,6.96E2,9.77E2,8.61E2,1.323E3,5.74E2,9.45E2,7.32E2,5.24E2,5.82E2,2.92E2,6.64E2,3.35E2,7.81E2,2.07E2,2.8E2,1.63E2,2.91E2,1.12E2,4.74E2],"tree_param":{"num_deleted":"0","num_feature":"12","num_nodes":"99","size_leaf_vector":"1"}},{"base_weights":[2.3290116E-2,-4.7296436E1,4.009849E2,-9.80854E1,6.330612E1,2.982039E2,6.447373E2,-1.1767772E2,-5.954079E1,2.5577772E1,1.1610519E2,2.3203044E2,3.890874E2,5.498651E2,7.383753E2,-1.3190399E2,-1.03462715E2,-7.324862E1,-3.6945576E1,5.045546E0,4.8177197E1,9.528232E1,1.4744542E2,2.033566E2,2.6616168E2,3.585429E2,4.3919678E2,2.5306759E1,5.920163E2,3.34267E1,7.604313E2,-1.393259E2,-1.2384679E2,-1.0962914E2,-9.4998795E1,-8.078666E1,-6.4106064E1,-4.611066E1,-2.5690426E1,-5.0774293E0,1.51660795E1,3.9011467E1,6.188151E1,8.159473E1,1.0847711E2,1.6160825E2,1.27193474E2,1.8887361E2,2.189173E2,2.4343431E2,2.8492804E2,1.5214424E1,3.679191E2,2.036871E1,2.3042578E1,2.7209146E1,3.0935892E1,3.02978E1,3.830821E1,-7.1745453E0,-6.7393146E0,-6.372415E0,-6.023837E0,-5.661862E0,-5.272765E0,-4.89385E0,-4.543679E0,-4.2431808E0,-3.8333378E0,-3.516433E0,-3.0400069E0,-2.580296E0,-2.0473764E0,-1.6640488E0,-1.0566666E0,-6.229617E-1,1.6203579E-2,4.275334E-1,1.1610936E0,1.5312295E0,2.4400163E0,2.1806707E0,3.3126984E0,3.3152406E0,4.331508E0,4.917954E0,5.914201E0,6.9525757E0,8.741616E0,6.124784E0,7.115847E0,9.677166E0,7.854113E0,1.0359684E1,1.1689028E1,1.1446773E1,1.3060295E1,1.3325934E1,1.5191475E1,1.6571316E1,1.8791159E1],"categories":[],"categories_nodes":[],"categories_segments":[],"categories_sizes":[],"default_left":[0,0,0,0,0,0,0,0,0,0,0,0,0,0,0,0,0,0,0,0,0,0,0,0,0,0,0,0,0,0,0,0,0,0,0,0,0,0,0,0,0,0,0,0,0,0,0,0,0,0,0,0,0,0,0,0,0,0,0,0,0,0,0,0,0,0,0,0,0,0,0,0,0,0,0,0,0,0,0,0,0,0,0,0,0,0,0,0,0,0,0,0,0,0,0,0,0,0,0,0,0],"id":3,"left_children":[1,3,5,7,9,11,13,15,17,19,21,23,25,27,29,31,33,35,37,39,41,43,45,47,49,51,53,-1,55,-1,57,59,61,63,65,67,69,71,73,75,77,79,81,83,85,87,89,91,93,95,97,-1,99,-1,-1,-1,-1,-1,-1,-1,-1,-1,-1,-1,-1,-1,-1,-1,-1,-1,-1,-1,-1,-1,-1,-1,-1,-1,-1,-1,-1,-1,-1,-1,-1,-1,-1,-1,-1,-1,-1,-1,-1,-1,-1,-1,-1,-1,-1,-1,-1],"loss_changes":[9.107609E8,2.411888E8,1.2675187E8,2.2213344E7,2.6913232E7,2.1355936E7,1.293728E7,3.9312E6,3.069208E6,3.657135E6,3.660712E6,1.967808E6,2.139888E6,1.082816E6,6.51552E5,5.65552E5,4.99096E5,4.20176E5,3.853345E5,4.232976E5,4.68875E5,6.02678E5,6.23652E5,2.1264E5,3.3156E5,3.65216E5,2.0092E5,0E0,1.43536E5,0E0,3.6064E4,7.6424E4,4.1464E4,7.3008E4,4.0044E4,5.025E4,5.3201E4,5.64485E4,5.7547625E4,8.2381266E4,1.0990347E5,1.83308E5,1.17085E5,1.22523E5,1.59132E5,3.6884E5,4.8569E4,5.7336E4,4.5134E4,5.1512E4,9.6136E4,0E0,1.04744E5,0E0,0E0,0E0,0E0,0E0,0E0,0E0,0E0,0E0,0E0,0E0,0E0,0E0,0E0,0E0,0E0,0E0,0E0,0E0,0E0,0E0,0E0,0E0,0E0,0E0,0E0,0E0,0E0,0E0,0E0,0E0,0E0,0E0,0E0,0E0,0E0,0E0,0E0,0E0,0E0,0E0,0E0,0E0,0E0,0E0,0E0,0E0,0E0],"parents":[2147483647,0,0,1,1,2,2,3,3,4,4,5,5,6,6,7,7,8,8,9,9,10,10,11,11,12,12,13,13,14,14,15,15,16,16,17,17,18,18,19,19,20,20,21,21,22,22,23,23,24,24,25,25,26,26,28,28,30,30,31,31,32,32,33,33,34,34,35,35,36,36,37,37,38,38,39,39,40,40,41,41,42,42,43,43,44,44,45,45,46,46,47,47,48,48,49,49,50,50,52,52],"right_children":[2,4,6,8,10,12,14,16,18,20,22,24,26,28,30,32,34,36,38,40,42,44,46,48,50,52,54,-1,56,-1,58,60,62,64,66,68,70,72,74,76,78,80,82,84,86,88,90,92,94,96,98,-1,100,-1,-1,-1,-1,-1,-1,-1,-1,-1,-1,-1,-1,-1,-1,-1,-1,-1,-1,-1,-1,-1,-1,-1,-1,-1,-1,-1,-1,-1,-1,-1,-1,-1,-1,-1,-1,-1,-1,-1,-1,-1,-1,-1,-1,-1,-1,-1,-1],"split_conditions":[7.6193164E2,3.1000327E2,1.432505E3,1.5818376E2,5.07705E2,1.04351E3,1.786295E3,9.2575E1,2.315151E2,4.076806E2,6.2775433E2,8.7782275E2,1.260295E3,1.5808806E3,1.90095E3,6.2472237E1,1.2768E2,1.93315E2,2.7079E2,3.5877124E2,4.6452695E2,1.0920675E2,2.29E1,1.5410333E2,7.11E0,7.11E0,2.4872063E2,2.5306759E1,3.147E2,3.34267E1,2.9742017E2,4.554E1,7.7605E1,1.1074E2,2.839E1,1.7387119E2,3.83064E1,2.16E0,2.53E0,6.41E1,7.748273E1,8.7E1,8.178069E1,8.789E1,5.7649E2,1.26862625E2,7.0488806E2,2.323E1,2.13E1,1.737E2,9.653986E2,1.5214424E1,2.0033E2,2.036871E1,2.3042578E1,2.7209146E1,3.0935892E1,3.02978E1,3.830821E1,-7.1745453E0,-6.7393146E0,-6.372415E0,-6.023837E0,-5.661862E0,-5.272765E0,-4.89385E0,-4.543679E0,-4.2431808E0,-3.8333378E0,-3.516433E0,-3.0400069E0,-2.580296E0,-2.0473764E0,-1.6640488E0,-1.0566666E0,-6.229617E-1,1.6203579E-2,4.275334E-1,1.1610936E0,1.5312295E0,2.4400163E0,2.1806707E0,3.3126984E0,3.3152406E0,4.331508E0,4.917954E0,5.914201E0,6.9525757E0,8.741616E0,6.124784E0,7.115847E0,9.677166E0,7.854113E0,1.0359684E1,1.1689028E1,1.1446773E1,1.3060295E1,1.3325934E1,1.5191475E1,1.6571316E1,1.8791159E1],"split_indices":[0,0,0,0,0,0,0,0,0,0,0,0,0,0,0,0,0,0,0,0,0,1,2,1,3,3,1,0,1,0,1,0,0,0,1,0,1,3,3,1,1,1,1,1,0,1,0,2,4,1,0,0,1,0,0,0,0,0,0,0,0,0,0,0,0,0,0,0,0,0,0,0,0,0,0,0,0,0,0,0,0,0,0,0,0,0,0,0,0,0,0,0,0,0,0,0,0,0,0,0,0],"split_type":[0,0,0,0,0,0,0,0,0,0,0,0,0,0,0,0,0,0,0,0,0,0,0,0,0,0,0,0,0,0,0,0,0,0,0,0,0,0,0,0,0,0,0,0,0,0,0,0,0,0,0,0,0,0,0,0,0,0,0,0,0,0,0,0,0,0,0,0,0,0,0,0,0,0,0,0,0,0,0,0,0,0,0,0,0,0,0,0,0,0,0,0,0,0,0,0,0,0,0,0,0],"sum_hessian":[4.8E4,4.2934E4,5.066E3,2.9423E4,1.3511E4,3.565E3,1.501E3,1.9506E4,9.917E3,7.881E3,5.63E3,2.065E3,1.5E3,7.49E2,7.52E2,9.745E3,9.761E3,6.171E3,3.746E3,4.13E3,3.751E3,3.385E3,2.245E3,1.126E3,9.39E2,9.37E2,5.63E2,3.74E2,3.75E2,1.88E2,5.64E2,5.064E3,4.681E3,5.64E3,4.121E3,3.378E3,2.793E3,2.063E3,1.683E3,2.065E3,2.065E3,2.25E3,1.501E3,1.665E3,1.72E3,1.317E3,9.28E2,5.9E2,5.36E2,4.31E2,5.08E2,1.43E2,7.94E2,2.36E2,3.27E2,1.42E2,2.33E2,2.4E1,5.4E2,2.625E3,2.439E3,2.245E3,2.436E3,3.011E3,2.629E3,2.414E3,1.707E3,1.688E3,1.69E3,9.62E2,1.831E3,9.95E2,1.068E3,6.29E2,1.054E3,8.72E2,1.193E3,1.135E3,9.3E2,1.214E3,1.036E3,2.92E2,1.209E3,4.16E2,1.249E3,8.52E2,8.68E2,4.91E2,8.26E2,7.15E2,2.13E2,5.1E2,8E1,3.08E2,2.28E2,2.45E2,1.86E2,2.65E2,2.43E2,1.49E2,6.45E2],"tree_param":{"num_deleted":"0","num_feature":"12","num_nodes":"101","size_leaf_vector":"1"}},{"base_weights":[2.9652731E-2,-4.67684E1,3.6609686E2,-9.462929E1,5.4107723E1,2.634864E2,5.9310254E2,-1.1364145E2,-6.222531E1,1.6356066E1,9.980189E1,2.1182736E2,3.5950516E2,5.0565756E2,7.0159204E2,-1.2690308E2,-1.0164997E2,-7.594617E1,-4.3427906E1,-3.4336298E0,3.4281296E1,7.6572075E1,1.2452386E2,1.8595825E2,2.5291002E2,3.336144E2,3.935845E2,4.669565E2,5.625701E2,6.782527E2,3.833575E1,-1.34476E2,-1.210747E2,-1.0778315E2,-9.473232E1,-8.310466E1,-6.9127716E1,-5.3305935E1,-3.3486645E1,-1.429129E1,2.907959E0,2.316798E1,4.4370132E1,6.51289E1,8.702261E1,1.140263E2,1.4723122E2,1.9189996E2,7.2709155E0,2.359403E2,2.764444E2,3.0982477E2,1.7795202E1,1.8618662E1,2.0806103E1,4.4854208E2,2.5038107E1,5.769014E2,2.4256252E1,3.1328663E1,3.530477E1,-6.9240227E0,-6.5871468E0,-6.2493496E0,-5.8830595E0,-5.557187E0,-5.2314854E0,-4.9515777E0,-4.594385E0,-4.330945E0,-3.9861615E0,-3.70674E0,-3.2869573E0,-2.8898702E0,-2.436761E0,-1.8974202E0,-1.2268182E0,-1.4627942E0,-6.1112195E-1,-5.8891755E-1,2.8589335E-1,4.870982E-1,1.3819788E0,1.8103446E0,2.6716983E0,2.5180032E0,3.455855E0,3.8345234E0,4.75301E0,4.722006E0,6.023845E0,7.985763E0,6.2677846E0,8.841456E0,1.0288466E1,1.1200459E1,1.2818202E1,1.2801753E1,1.47368E1,1.4054616E1,1.6181389E1,2.101064E1,2.3555815E1,2.6871328E1,3.0256018E1],"categories":[],"categories_nodes":[],"categories_segments":[],"categories_sizes":[],"default_left":[0,0,0,0,0,0,0,0,0,0,0,0,0,0,0,0,0,0,0,0,0,0,0,0,0,0,0,0,0,0,0,0,0,0,0,0,0,0,0,0,0,0,0,0,0,0,0,0,0,0,0,0,0,0,0,0,0,0,0,0,0,0,0,0,0,0,0,0,0,0,0,0,0,0,0,0,0,0,0,0,0,0,0,0,0,0,0,0,0,0,0,0,0,0,0,0,0,0,0,0,0,0,0,0,0],"id":4,"left_children":[1,3,5,7,9,11,13,15,17,19,21,23,25,27,29,31,33,35,37,39,41,43,45,47,49,51,53,55,57,59,-1,61,63,65,67,69,71,73,75,77,79,81,83,85,87,89,91,93,-1,95,97,99,-1,-1,-1,101,-1,103,-1,-1,-1,-1,-1,-1,-1,-1,-1,-1,-1,-1,-1,-1,-1,-1,-1,-1,-1,-1,-1,-1,-1,-1,-1,-1,-1,-1,-1,-1,-1,-1,-1,-1,-1,-1,-1,-1,-1,-1,-1,-1,-1,-1,-1,-1,-1],"loss_changes":[8.223333E8,2.0549053E8,1.2658182E8,1.77764E7,2.3624384E7,1.8519776E7,1.5706496E7,2.879952E6,2.75022E6,2.6609838E6,3.548748E6,2.546136E6,1.02456E6,1.80992E6,6.2448E5,3.64816E5,3.95304E5,2.95412E5,4.40803E5,2.4557784E5,4.40278E5,3.76652E5,6.98332E5,3.33652E5,3.10188E5,2.8796E5,1.1276E5,1.27728E5,1.37448E5,3.6768E5,0E0,2.2752E4,5.0576E4,4.198E4,4.5932E4,2.8804E4,4.8842E4,4.3559E4,8.88805E4,4.0354156E4,9.300103E4,1.1229769E5,1.5063325E5,8.6638E4,1.3123E5,2.48382E5,2.38052E5,2.366E5,0E0,7.7326E4,6.9384E4,5.6168E4,0E0,0E0,0E0,4.2488E4,0E0,2.2344E4,0E0,0E0,0E0,0E0,0E0,0E0,0E0,0E0,0E0,0E0,0E0,0E0,0E0,0E0,0E0,0E0,0E0,0E0,0E0,0E0,0E0,0E0,0E0,0E0,0E0,0E0,0E0,0E0,0E0,0E0,0E0,0E0,0E0,0E0,0E0,0E0,0E0,0E0,0E0,0E0,0E0,0E0,0E0,0E0,0E0,0E0,0E0],"parents":[2147483647,0,0,1,1,2,2,3,3,4,4,5,5,6,6,7,7,8,8,9,9,10,10,11,11,12,12,13,13,14,14,15,15,16,16,17,17,18,18,19,19,20,20,21,21,22,22,23,23,24,24,25,25,26,26,27,27,28,28,29,29,31,31,32,32,33,33,34,34,35,35,36,36,37,37,38,38,39,39,40,40,41,41,42,42,43,43,44,44,45,45,46,46,47,47,49,49,50,50,51,51,55,55,57,57],"right_children":[2,4,6,8,10,12,14,16,18,20,22,24,26,28,30,32,34,36,38,40,42,44,46,48,50,52,54,56,58,60,-1,62,64,66,68,70,72,74,76,78,80,82,84,86,88,90,92,94,-1,96,98,100,-1,-1,-1,102,-1,104,-1,-1,-1,-1,-1,-1,-1,-1,-1,-1,-1,-1,-1,-1,-1,-1,-1,-1,-1,-1,-1,-1,-1,-1,-1,-1,-1,-1,-1,-1,-1,-1,-1,-1,-1,-1,-1,-1,-1,-1,-1,-1,-1,-1,-1,-1,-1],"split_conditions":[7.313183E2,2.9665982E2,1.3668722E3,1.478534E2,4.8024E2,1.04351E3,1.786295E3,8.57E1,2.117E2,3.80324E2,5.8474E2,8.7782275E2,1.2136986E3,1.5808806E3,2.171545E3,5.329385E1,1.1667782E2,1.7387119E2,2.4841476E2,3.29245E2,4.255E2,1.0172975E2,6.724885E2,2.323E1,1.8969867E2,2.2201547E2,2.4872063E2,1.5021E3,1.3E1,3.51555E2,3.833575E1,3.687222E1,6.874951E1,1.0048575E2,2.397E1,3.06816E1,3.563668E1,4.52E1,2.795E2,5.057E1,5.9210957E1,7.072E1,8.984312E1,8.178069E1,5.3052496E2,1.08E2,2.29E1,1.5117691E2,7.2709155E0,7.52E0,9.653986E2,7.52E0,1.7795202E1,1.8618662E1,2.0806103E1,2.7027356E2,2.5038107E1,1.253E1,2.4256252E1,3.1328663E1,3.530477E1,-6.9240227E0,-6.5871468E0,-6.2493496E0,-5.8830595E0,-5.557187E0,-5.2314854E0,-4.9515777E0,-4.594385E0,-4.330945E0,-3.9861615E0,-3.70674E0,-3.2869573E0,-2.8898702E0,-2.436761E0,-1.8974202E0,-1.2268182E0,-1.4627942E0,-6.1112195E-1,-5.8891755E-1,2.8589335E-1,4.870982E-1,1.3819788E0,1.8103446E0,2.6716983E0,2.5180032E0,3.455855E0,3.8345234E0,4.75301E0,4.722006E0,6.023845E0,7.985763E0,6.2677846E0,8.841456E0,1.0288466E1,1.1200459E1,1.2818202E1,1.2801753E1,1.47368E1,1.4054616E1,1.6181389E1,2.101064E1,2.3555815E1,2.6871328E1,3.0256018E1],"split_indices":[0,0,0,0,0,0,0,0,0,0,0,0,0,0,0,0,0,0,0,0,0,1,0,2,1,1,1,0,7,1,0,0,0,0,1,1,1,1,0,1,1,1,1,1,0,1,2,1,0,3,0,3,0,0,0,1,0,3,0,0,0,0,0,0,0,0,0,0,0,0,0,0,0,0,0,0,0,0,0,0,0,0,0,0,0,0,0,0,0,0,0,0,0,0,0,0,0,0,0,0,0,0,0,0,0],"split_type":[0,0,0,0,0,0,0,0,0,0,0,0,0,0,0,0,0,0,0,0,0,0,0,0,0,0,0,0,0,0,0,0,0,0,0,0,0,0,0,0,0,0,0,0,0,0,0,0,0,0,0,0,0,0,0,0,0,0,0,0,0,0,0,0,0,0,0,0,0,0,0,0,0,0,0,0,0,0,0,0,0,0,0,0,0,0,0,0,0,0,0,0,0,0,0,0,0,0,0,0,0,0,0,0,0],"sum_hessian":[4.8E4,4.256E4,5.44E3,2.8865E4,1.3695E4,3.748E3,1.692E3,1.819E4,1.0675E4,7.5E3,6.195E3,2.439E3,1.309E3,9.4E2,7.52E2,8.633E3,9.557E3,6.169E3,4.506E3,3.565E3,3.935E3,3.196E3,2.999E3,1.5E3,9.39E2,7.5E2,5.59E2,5.65E2,3.75E2,5.62E2,1.9E2,3.745E3,4.888E3,5.058E3,4.499E3,3.004E3,3.165E3,2.258E3,2.248E3,1.314E3,2.251E3,1.874E3,2.061E3,1.529E3,1.667E3,2.055E3,9.44E2,1.305E3,1.95E2,5.52E2,3.87E2,3.7E2,3.8E2,2.97E2,2.62E2,3.75E2,1.9E2,3.11E2,6.4E1,2.05E2,3.57E2,1.499E3,2.246E3,2.261E3,2.627E3,2.432E3,2.626E3,1.778E3,2.721E3,1.461E3,1.543E3,1.269E3,1.896E3,1.133E3,1.125E3,1.498E3,7.5E2,1.58E2,1.156E3,3.61E2,1.89E3,4.69E2,1.405E3,1.087E3,9.74E2,3.28E2,1.201E3,7.34E2,9.33E2,5.13E2,1.542E3,5.97E2,3.47E2,6.32E2,6.73E2,3.56E2,1.96E2,1.9E2,1.97E2,1.27E2,2.43E2,1.75E2,2E2,1.38E2,1.73E2],"tree_param":{"num_deleted":"0","num_feature":"12","num_nodes":"105","size_leaf_vector":"1"}},{"base_weights":[3.64035E-2,-4.2691742E1,3.6209146E2,-8.898133E1,5.6157604E1,2.6927902E2,5.8220264E2,-1.0672417E2,-5.540468E1,2.1189491E1,1.03477196E2,2.0960956E2,3.5122964E2,4.966393E2,6.6665186E2,-1.19809235E2,-9.46333E1,-6.785825E1,-3.573219E1,3.6697495E0,4.2385185E1,8.344754E1,1.3123955E2,1.8380934E2,2.4031937E2,3.2347656E2,3.967636E2,2.2859741E1,5.346581E2,3.0093512E1,6.871423E2,-1.2657914E2,-1.13278244E2,-1.00135704E2,-8.684486E1,-7.4146904E1,-5.939939E1,-4.2957603E1,-2.4062109E1,-5.5578833E0,1.3708495E1,3.138573E1,5.073883E1,7.188198E1,9.5768456E1,1.4421257E2,1.1393661E2,1.7425363E2,2.0478685E2,2.2418672E2,2.6269315E2,1.3699379E1,3.3203372E2,1.8402334E1,4.1630368E2,2.4541885E1,2.7957615E1,2.8678528E1,6.942431E2,-6.5246286E0,-6.1608553E0,-5.834022E0,-5.5034504E0,-5.156975E0,-4.7958455E0,-4.511169E0,-4.201729E0,-3.9190693E0,-3.5311432E0,-3.1392934E0,-2.7355328E0,-2.4118419E0,-1.8941154E0,-1.5569047E0,-9.7443104E-1,-6.19885E-1,-1.117037E-2,3.8273165E-1,1.0540327E0,1.3546717E0,2.199202E0,2.1337612E0,2.9193823E0,2.9197812E0,3.8310611E0,4.3621373E0,5.1876616E0,6.1590915E0,7.8502855E0,5.5029716E0,6.427527E0,8.931895E0,7.148351E0,9.323606E0,1.0820874E1,1.0642005E1,1.2180545E1,1.2165018E1,1.4003682E1,1.5560762E1,1.7211115E1,1.302502E1,2.0944487E1,3.0025717E1,3.5140453E1],"categories":[],"categories_nodes":[],"categories_segments":[],"categories_sizes":[],"default_left":[0,0,0,0,0,0,0,0,0,0,0,0,0,0,0,0,0,0,0,0,0,0,0,0,0,0,0,0,0,0,0,0,0,0,0,0,0,0,0,0,0,0,0,0,0,0,0,0,0,0,0,0,0,0,0,0,0,0,0,0,0,0,0,0,0,0,0,0,0,0,0,0,0,0,0,0,0,0,0,0,0,0,0,0,0,0,0,0,0,0,0,0,0,0,0,0,0,0,0,0,0,0,0,0,0],"id":5,"left_children":[1,3,5,7,9,11,13,15,17,19,21,23,25,27,29,31,33,35,37,39,41,43,45,47,49,51,53,-1,55,-1,57,59,61,63,65,67,69,71,73,75,77,79,81,83,85,87,89,91,93,95,97,-1,99,-1,101,-1,-1,-1,103,-1,-1,-1,-1,-1,-1,-1,-1,-1,-1,-1,-1,-1,-1,-1,-1,-1,-1,-1,-1,-1,-1,-1,-1,-1,-1,-1,-1,-1,-1,-1,-1,-1,-1,-1,-1,-1,-1,-1,-1,-1,-1,-1,-1,-1,-1],"loss_changes":[7.42588E8,1.964625E8,1.0335725E8,1.7414864E7,2.2656952E7,1.7363968E7,1.0522016E7,3.015392E6,2.474946E6,2.924543E6,3.22482E6,1.59276E6,1.76848E6,8.80272E5,5.85952E5,3.9172E5,4.17624E5,3.24924E5,3.29674E5,3.9960603E5,3.25888E5,4.75188E5,5.30608E5,1.90228E5,2.804E5,3.06256E5,1.63248E5,0E0,1.29128E5,0E0,5.7456E4,4.3136E4,3.83E4,6.39E4,3.159E4,4.7396E4,3.8563E4,6.304E4,4.8000812E4,8.201965E4,9.204428E4,8.2138875E4,1.223425E5,1.07313E5,1.02252E5,3.54368E5,4.5288E4,8.1588E4,3.356E4,7.0032E4,6.2634E4,0E0,9.46E4,0E0,2.304E4,0E0,0E0,0E0,1.072E3,0E0,0E0,0E0,0E0,0E0,0E0,0E0,0E0,0E0,0E0,0E0,0E0,0E0,0E0,0E0,0E0,0E0,0E0,0E0,0E0,0E0,0E0,0E0,0E0,0E0,0E0,0E0,0E0,0E0,0E0,0E0,0E0,0E0,0E0,0E0,0E0,0E0,0E0,0E0,0E0,0E0,0E0,0E0,0E0,0E0,0E0],"parents":[2147483647,0,0,1,1,2,2,3,3,4,4,5,5,6,6,7,7,8,8,9,9,10,10,11,11,12,12,13,13,14,14,15,15,16,16,17,17,18,18,19,19,20,20,21,21,22,22,23,23,24,24,25,25,26,26,28,28,30,30,31,31,32,32,33,33,34,34,35,35,36,36,37,37,38,38,39,39,40,40,41,41,42,42,43,43,44,44,45,45,46,46,47,47,48,48,49,49,50,50,52,52,54,54,58,58],"right_children":[2,4,6,8,10,12,14,16,18,20,22,24,26,28,30,32,34,36,38,40,42,44,46,48,50,52,54,-1,56,-1,58,60,62,64,66,68,70,72,74,76,78,80,82,84,86,88,90,92,94,96,98,-1,100,-1,102,-1,-1,-1,104,-1,-1,-1,-1,-1,-1,-1,-1,-1,-1,-1,-1,-1,-1,-1,-1,-1,-1,-1,-1,-1,-1,-1,-1,-1,-1,-1,-1,-1,-1,-1,-1,-1,-1,-1,-1,-1,-1,-1,-1,-1,-1,-1,-1,-1,-1],"split_conditions":[7.6193164E2,3.0569E2,1.432505E3,1.5511253E2,5.020651E2,1.04351E3,1.786295E3,8.911916E1,2.257111E2,4.076806E2,6.193995E2,8.7782275E2,1.260295E3,1.5808806E3,1.90095E3,5.8765E1,1.25163475E2,1.909E2,2.7079E2,3.5877124E2,8.610389E1,1.0920675E2,2.29E1,7.11E0,1.8969867E2,7.11E0,2.4872063E2,2.2859741E1,3.147E2,3.0093512E1,1.513E1,4.1413708E1,7.401924E1,1.09595E2,2.6079027E1,3.243E1,4.1920418E1,4.84826E1,2.53E0,6.41E1,7.748273E1,4.6452695E2,4.591556E2,8.789E1,5.6892096E2,1.26862625E2,7.0488806E2,2.323E1,8.114421E2,7.52E0,9.653986E2,1.3699379E1,1.1257E3,1.8402334E1,2.2E1,2.4541885E1,2.7957615E1,2.8678528E1,3.147E2,-6.5246286E0,-6.1608553E0,-5.834022E0,-5.5034504E0,-5.156975E0,-4.7958455E0,-4.511169E0,-4.201729E0,-3.9190693E0,-3.5311432E0,-3.1392934E0,-2.7355328E0,-2.4118419E0,-1.8941154E0,-1.5569047E0,-9.7443104E-1,-6.19885E-1,-1.117037E-2,3.8273165E-1,1.0540327E0,1.3546717E0,2.199202E0,2.1337612E0,2.9193823E0,2.9197812E0,3.8310611E0,4.3621373E0,5.1876616E0,6.1590915E0,7.8502855E0,5.5029716E0,6.427527E0,8.931895E0,7.148351E0,9.323606E0,1.0820874E1,1.0642005E1,1.2180545E1,1.2165018E1,1.4003682E1,1.5560762E1,1.7211115E1,1.302502E1,2.0944487E1,3.0025717E1,3.5140453E1],"split_indices":[0,0,0,0,0,0,0,0,0,0,0,0,0,0,0,0,0,0,0,0,1,1,2,3,1,3,1,0,1,0,2,0,0,0,1,1,1,1,3,1,1,0,0,1,0,1,0,2,0,3,0,0,0,0,5,0,0,0,1,0,0,0,0,0,0,0,0,0,0,0,0,0,0,0,0,0,0,0,0,0,0,0,0,0,0,0,0,0,0,0,0,0,0,0,0,0,0,0,0,0,0,0,0,0,0],"split_type":[0,0,0,0,0,0,0,0,0,0,0,0,0,0,0,0,0,0,0,0,0,0,0,0,0,0,0,0,0,0,0,0,0,0,0,0,0,0,0,0,0,0,0,0,0,0,0,0,0,0,0,0,0,0,0,0,0,0,0,0,0,0,0,0,0,0,0,0,0,0,0,0,0,0,0,0,0,0,0,0,0,0,0,0,0,0,0,0,0,0,0,0,0,0,0,0,0,0,0,0,0,0,0,0,0],"sum_hessian":[4.8E4,4.2934E4,5.066E3,2.9241E4,1.3693E4,3.565E3,1.501E3,1.913E4,1.0111E4,7.875E3,5.818E3,2.065E3,1.5E3,7.49E2,7.52E2,9.183E3,9.947E3,6.19E3,3.921E3,4.312E3,3.563E3,3.382E3,2.436E3,1.126E3,9.39E2,9.37E2,5.63E2,3.74E2,3.75E2,1.88E2,5.64E2,4.5E3,4.683E3,5.822E3,4.125E3,3.546E3,2.644E3,2.42E3,1.501E3,2.247E3,2.065E3,1.54E3,2.023E3,1.748E3,1.634E3,1.388E3,1.048E3,7.8E2,3.46E2,5.52E2,3.87E2,1.43E2,7.94E2,2.36E2,3.27E2,1.42E2,2.33E2,3.8E1,5.26E2,2.062E3,2.438E3,2.256E3,2.427E3,3.387E3,2.435E3,1.859E3,2.266E3,1.601E3,1.945E3,1.528E3,1.116E3,1.182E3,1.238E3,5.87E2,9.14E2,9.84E2,1.263E3,1.135E3,9.3E2,1.151E3,3.89E2,9.88E2,1.035E3,4.58E2,1.29E3,7.96E2,8.38E2,5.29E2,8.59E2,8.35E2,2.13E2,6.8E2,1E2,1.41E2,2.05E2,3.56E2,1.96E2,1.9E2,1.97E2,3.03E2,4.91E2,7E0,3.2E2,5E1,4.76E2],"tree_param":{"num_deleted":"0","num_feature":"12","num_nodes":"105","size_leaf_vector":"1"}},{"base_weights":[4.233552E-2,-4.384871E1,3.1834106E2,-8.627862E1,4.4444527E1,2.290907E2,5.356118E2,-1.0379046E2,-5.9377483E1,1.2258803E1,8.564879E1,1.744427E2,3.079629E2,4.567242E2,6.334838E2,-1.15851814E2,-9.407882E1,-7.0487236E1,-4.1552616E1,-4.6421385E0,3.0003551E1,6.805476E1,1.082926E2,1.5227956E2,2.0027922E2,2.682235E2,3.396375E2,4.218112E2,5.080648E2,6.1189197E2,3.4690624E1,-1.21990166E2,-1.1102322E2,-9.942537E1,-8.804142E1,-7.6235756E1,-6.287278E1,-4.8598198E1,-3.2359188E1,-1.5404026E1,1.9899355E0,1.954531E1,3.819865E1,5.743926E1,7.827891E1,9.323541E1,1.1743236E2,1.5976355E2,6.27893E0,1.8646266E2,2.1900943E2,1.1898427E1,2.8360422E2,3.2108237E2,3.6673376E2,4.0478763E2,2.2655752E1,5.214005E2,2.1811842E1,2.8211521E1,6.376081E2,-6.2736373E0,-5.985698E0,-5.6887984E0,-5.398726E0,-5.108253E0,-4.808538E0,-4.590394E0,-4.2716837E0,-3.992312E0,-3.658632E0,-3.3969123E0,-3.013624E0,-2.749898E0,-2.289169E0,-1.8600943E0,-1.3151659E0,-1.4376221E0,-6.7303437E-1,-5.5381364E-1,2.3457062E-1,5.012719E-1,1.2045767E0,1.5225853E0,2.2914417E0,2.566539E0,3.3322263E0,3.456743E0,4.294999E0,4.182063E0,4.98615E0,6.524321E0,5.276039E0,7.1805987E0,8.550529E0,8.594481E0,9.871026E0,1.0426009E1,1.2178571E1,1.2283278E1,1.4561114E1,1.5014811E1,1.7015219E1,1.7283617E1,1.92917E1,1.8917383E1,2.129626E1,2.423807E1,2.7383657E1,1.5367746E1,3.197666E1],"categories":[],"categories_nodes":[],"categories_segments":[],"categories_sizes":[],"default_left":[0,0,0,0,0,0,0,0,0,0,0,0,0,0,0,0,0,0,0,0,0,0,0,0,0,0,0,0,0,0,0,0,0,0,0,0,0,0,0,0,0,0,0,0,0,0,0,0,0,0,0,0,0,0,0,0,0,0,0,0,0,0,0,0,0,0,0,0,0,0,0,0,0,0,0,0,0,0,0,0,0,0,0,0,0,0,0,0,0,0,0,0,0,0,0,0,0,0,0,0,0,0,0,0,0,0,0,0,0,0,0],"id":6,"left_children":[1,3,5,7,9,11,13,15,17,19,21,23,25,27,29,31,33,35,37,39,41,43,45,47,49,51,53,55,57,59,-1,61,63,65,67,69,71,73,75,77,79,81,83,85,87,89,91,93,-1,95,97,-1,99,101,103,105,-1,107,-1,-1,109,-1,-1,-1,-1,-1,-1,-1,-1,-1,-1,-1,-1,-1,-1,-1,-1,-1,-1,-1,-1,-1,-1,-1,-1,-1,-1,-1,-1,-1,-1,-1,-1,-1,-1,-1,-1,-1,-1,-1,-1,-1,-1,-1,-1,-1,-1,-1,-1,-1,-1],"loss_changes":[6.7061024E8,1.5804042E8,1.1267757E8,1.3416544E7,1.8158456E7,1.7725872E7,1.2782176E7,2.010512E6,2.222328E6,2.3060932E6,2.384996E6,1.366112E6,2.032384E6,1.472384E6,5.5632E5,2.1448E5,2.99992E5,2.98152E5,2.780525E5,2.8117138E5,3.207375E5,3.62567E5,3.50166E5,2.43112E5,2.49784E5,2.82916E5,3.52344E5,1.18216E5,1.32696E5,3.30304E5,0E0,1.1744E4,2.3944E4,3.5336E4,3.6364E4,3.772E4,3.5196E4,4.14725E4,5.4038625E4,3.8575625E4,8.610864E4,7.1169625E4,1.2285475E5,9.009E4,1.13923E5,5.3653E4,2.3953E5,1.61642E5,0E0,7.0342E4,7.0556E4,0E0,7.1236E4,1.22752E5,1.6676E4,4.8984E4,0E0,3.4848E4,0E0,0E0,3.104E4,0E0,0E0,0E0,0E0,0E0,0E0,0E0,0E0,0E0,0E0,0E0,0E0,0E0,0E0,0E0,0E0,0E0,0E0,0E0,0E0,0E0,0E0,0E0,0E0,0E0,0E0,0E0,0E0,0E0,0E0,0E0,0E0,0E0,0E0,0E0,0E0,0E0,0E0,0E0,0E0,0E0,0E0,0E0,0E0,0E0,0E0,0E0,0E0,0E0,0E0],"parents":[2147483647,0,0,1,1,2,2,3,3,4,4,5,5,6,6,7,7,8,8,9,9,10,10,11,11,12,12,13,13,14,14,15,15,16,16,17,17,18,18,19,19,20,20,21,21,22,22,23,23,24,24,25,25,26,26,27,27,28,28,29,29,31,31,32,32,33,33,34,34,35,35,36,36,37,37,38,38,39,39,40,40,41,41,42,42,43,43,44,44,45,45,46,46,47,47,49,49,50,50,52,52,53,53,54,54,55,55,57,57,60,60],"right_children":[2,4,6,8,10,12,14,16,18,20,22,24,26,28,30,32,34,36,38,40,42,44,46,48,50,52,54,56,58,60,-1,62,64,66,68,70,72,74,76,78,80,82,84,86,88,90,92,94,-1,96,98,-1,100,102,104,106,-1,108,-1,-1,110,-1,-1,-1,-1,-1,-1,-1,-1,-1,-1,-1,-1,-1,-1,-1,-1,-1,-1,-1,-1,-1,-1,-1,-1,-1,-1,-1,-1,-1,-1,-1,-1,-1,-1,-1,-1,-1,-1,-1,-1,-1,-1,-1,-1,-1,-1,-1,-1,-1,-1],"split_conditions":[7.0488806E2,2.876823E2,1.3668722E3,1.4093573E2,4.75799E2,9.653986E2,1.786295E3,7.996131E1,2.0912807E2,3.80324E2,5.8474E2,8.114421E2,1.1257E3,1.5808806E3,2.171545E3,5.077025E1,1.1074E2,1.7387119E2,2.4841476E2,3.2412115E2,8.178069E1,1.0172975E2,1.1714009E2,2.3115E1,7.11E0,1.8969867E2,1.260295E3,1.5021E3,1.3E1,3.51555E2,3.4690624E1,3.56E1,6.619271E1,1.87E1,2.3011202E1,2.93E1,3.43769E1,1.6E0,2.53E0,4.9888966E1,5.9210957E1,6.900311E1,4.3438165E2,5.2472235E2,5.3052496E2,1.031E2,2.2797926E1,1.4097247E2,6.27893E0,1.5117691E2,2.5E1,1.1898427E1,7.11E0,2.3037259E2,2.4872063E2,2.7027356E2,2.2655752E1,1.253E1,2.1811842E1,2.8211521E1,2.1E1,-6.2736373E0,-5.985698E0,-5.6887984E0,-5.398726E0,-5.108253E0,-4.808538E0,-4.590394E0,-4.2716837E0,-3.992312E0,-3.658632E0,-3.3969123E0,-3.013624E0,-2.749898E0,-2.289169E0,-1.8600943E0,-1.3151659E0,-1.4376221E0,-6.7303437E-1,-5.5381364E-1,2.3457062E-1,5.012719E-1,1.2045767E0,1.5225853E0,2.2914417E0,2.566539E0,3.3322263E0,3.456743E0,4.294999E0,4.182063E0,4.98615E0,6.524321E0,5.276039E0,7.1805987E0,8.550529E0,8.594481E0,9.871026E0,1.0426009E1,1.2178571E1,1.2283278E1,1.4561114E1,1.5014811E1,1.7015219E1,1.7283617E1,1.92917E1,1.8917383E1,2.129626E1,2.423807E1,2.7383657E1,1.5367746E1,3.197666E1],"split_indices":[0,0,0,0,0,0,0,0,0,0,0,0,0,0,0,0,0,0,0,0,1,1,1,2,3,1,0,0,7,1,0,0,0,1,1,1,1,3,3,1,1,1,0,0,0,1,2,1,0,1,4,0,3,1,1,1,0,3,0,0,5,0,0,0,0,0,0,0,0,0,0,0,0,0,0,0,0,0,0,0,0,0,0,0,0,0,0,0,0,0,0,0,0,0,0,0,0,0,0,0,0,0,0,0,0,0,0,0,0,0,0],"split_type":[0,0,0,0,0,0,0,0,0,0,0,0,0,0,0,0,0,0,0,0,0,0,0,0,0,0,0,0,0,0,0,0,0,0,0,0,0,0,0,0,0,0,0,0,0,0,0,0,0,0,0,0,0,0,0,0,0,0,0,0,0,0,0,0,0,0,0,0,0,0,0,0,0,0,0,0,0,0,0,0,0,0,0,0,0,0,0,0,0,0,0,0,0,0,0,0,0,0,0,0,0,0,0,0,0,0,0,0,0,0,0],"sum_hessian":[4.8E4,4.2184E4,5.816E3,2.8492E4,1.3692E4,4.124E3,1.692E3,1.7256E4,1.1236E4,7.688E3,6.004E3,2.438E3,1.686E3,9.4E2,7.52E2,7.692E3,9.564E3,6.92E3,4.316E3,3.938E3,3.75E3,3.381E3,2.623E3,1.316E3,1.122E3,7.52E2,9.34E2,5.65E2,3.75E2,5.62E2,1.9E2,3.376E3,4.316E3,5.064E3,4.5E3,3.938E3,2.982E3,2.441E3,1.875E3,1.501E3,2.437E3,1.649E3,2.101E3,1.662E3,1.719E3,9.95E2,1.628E3,1.024E3,2.92E2,6.52E2,4.7E2,2.59E2,4.93E2,5.62E2,3.72E2,3.75E2,1.9E2,3.11E2,6.4E1,2.05E2,3.57E2,1.313E3,2.063E3,2.249E3,2.067E3,2.733E3,2.331E3,1.827E3,2.673E3,1.796E3,2.142E3,1.003E3,1.979E3,7.4E2,1.701E3,1.039E3,8.36E2,1.89E2,1.312E3,4.17E2,2.02E3,5.34E2,1.115E3,1.045E3,1.056E3,1.003E3,6.59E2,7.86E2,9.33E2,4.07E2,5.88E2,7.72E2,8.56E2,4.26E2,5.98E2,2.87E2,3.65E2,3.36E2,1.34E2,8.8E1,4.05E2,2.78E2,2.84E2,1.86E2,1.86E2,1.75E2,2E2,1.38E2,1.73E2,3E0,3.54E2],"tree_param":{"num_deleted":"0","num_feature":"12","num_nodes":"111","size_leaf_vector":"1"}},{"base_weights":[4.8348803E-2,-4.1656906E1,3.024957E2,-8.196695E1,4.2225056E1,2.1767747E2,5.0897687E2,-9.860338E1,-5.6410595E1,1.1646265E1,8.1372116E1,1.6574643E2,2.9262836E2,4.3403287E2,6.0195605E2,-1.0982189E2,-8.917515E1,-6.6964905E1,-3.9476887E1,-4.4106493E0,2.8504847E1,6.465606E1,1.0288596E2,1.4759392E2,1.9453687E2,2.4470497E2,3.1641498E2,4.008317E2,4.8285684E2,5.4200574E2,6.209448E2,-1.1561897E2,-1.0500608E2,-9.425884E1,-8.364132E1,-7.242592E1,-5.973129E1,-4.6170353E1,-3.074292E1,-1.4635229E1,1.8903062E0,1.8569082E1,3.629053E1,5.457084E1,7.436947E1,8.858285E1,1.11567986E2,1.54523E2,5.996948E0,1.8219763E2,2.1011128E2,1.1012879E1,2.590235E2,3.0008215E2,3.4849512E2,1.8669949E1,4.1783746E2,4.9549597E2,2.073803E1,2.4559381E1,2.8778564E1,2.6992615E1,6.300464E2,-5.9601936E0,-5.673748E0,-5.3812513E0,-5.1047444E0,-4.8611293E0,-4.5834656E0,-4.3609996E0,-4.0581794E0,-3.7799351E0,-3.4635487E0,-3.1919224E0,-2.8416524E0,-2.5261633E0,-2.1175811E0,-1.7931073E0,-1.2770725E0,-1.3661193E0,-6.394083E-1,-3.7854397E-1,2.631118E-1,6.9099015E-1,1.356168E0,1.4465289E0,2.1769779E0,1.9946854E0,2.9080353E0,3.2841256E0,4.080479E0,3.9734719E0,4.7372656E0,6.198527E0,5.012545E0,6.916228E0,8.257581E0,8.552672E0,9.664189E0,9.981429E0,1.1774325E1,7.928333E0,1.30604925E1,1.4122464E1,1.5955439E1,1.4738784E1,1.7730085E1,1.7421946E1,2.1282288E1,2.610939E1,2.311951E1,3.2088013E1,2.6992615E1],"categories":[],"categories_nodes":[],"categories_segments":[],"categories_sizes":[],"default_left":[0,0,0,0,0,0,0,0,0,0,0,0,0,0,0,0,0,0,0,0,0,0,0,0,0,0,0,0,0,0,0,0,0,0,0,0,0,0,0,0,0,0,0,0,0,0,0,0,0,0,0,0,0,0,0,0,0,0,0,0,0,0,0,0,0,0,0,0,0,0,0,0,0,0,0,0,0,0,0,0,0,0,0,0,0,0,0,0,0,0,0,0,0,0,0,0,0,0,0,0,0,0,0,0,0,0,0,0,0,0,0,0,0],"id":7,"left_children":[1,3,5,7,9,11,13,15,17,19,21,23,25,27,29,31,33,35,37,39,41,43,45,47,49,51,53,55,57,59,61,63,65,67,69,71,73,75,77,79,81,83,85,87,89,91,93,95,-1,97,99,-1,101,103,105,-1,107,109,-1,-1,-1,-1,111,-1,-1,-1,-1,-1,-1,-1,-1,-1,-1,-1,-1,-1,-1,-1,-1,-1,-1,-1,-1,-1,-1,-1,-1,-1,-1,-1,-1,-1,-1,-1,-1,-1,-1,-1,-1,-1,-1,-1,-1,-1,-1,-1,-1,-1,-1,-1,-1,-1,-1],"loss_changes":[6.054801E8,1.4264298E8,1.0176438E8,1.2108704E7,1.6390528E7,1.6007152E7,1.1535968E7,1.815488E6,2.005676E6,2.0815138E6,2.1529E6,1.245956E6,1.845632E6,1.33184E6,5.2064E5,2.07728E5,2.56056E5,2.69074E5,2.509545E5,2.5379628E5,2.8949125E5,3.2725E5,3.15966E5,2.68902E5,1.42364E5,1.4038E5,4.84352E5,1.08024E5,1.18104E5,3.9672E4,7.6864E4,1.3868E4,2.1896E4,2.8556E4,3.283E4,3.419E4,3.188E4,3.8453E4,4.9037125E4,3.4848438E4,7.781802E4,6.6659125E4,1.1088725E5,8.5301E4,1.02818E5,4.84065E4,2.1622E5,1.83064E5,0E0,3.2664E4,6.1784E4,0E0,3.5452E4,1.6216E5,1.7832E4,0E0,3.6472E4,3.424E4,0E0,0E0,0E0,0E0,1.8392E5,0E0,0E0,0E0,0E0,0E0,0E0,0E0,0E0,0E0,0E0,0E0,0E0,0E0,0E0,0E0,0E0,0E0,0E0,0E0,0E0,0E0,0E0,0E0,0E0,0E0,0E0,0E0,0E0,0E0,0E0,0E0,0E0,0E0,0E0,0E0,0E0,0E0,0E0,0E0,0E0,0E0,0E0,0E0,0E0,0E0,0E0,0E0,0E0,0E0,0E0],"parents":[2147483647,0,0,1,1,2,2,3,3,4,4,5,5,6,6,7,7,8,8,9,9,10,10,11,11,12,12,13,13,14,14,15,15,16,16,17,17,18,18,19,19,20,20,21,21,22,22,23,23,24,24,25,25,26,26,27,27,28,28,29,29,30,30,31,31,32,32,33,33,34,34,35,35,36,36,37,37,38,38,39,39,40,40,41,41,42,42,43,43,44,44,45,45,46,46,47,47,49,49,50,50,52,52,53,53,54,54,56,56,57,57,62,62],"right_children":[2,4,6,8,10,12,14,16,18,20,22,24,26,28,30,32,34,36,38,40,42,44,46,48,50,52,54,56,58,60,62,64,66,68,70,72,74,76,78,80,82,84,86,88,90,92,94,96,-1,98,100,-1,102,104,106,-1,108,110,-1,-1,-1,-1,112,-1,-1,-1,-1,-1,-1,-1,-1,-1,-1,-1,-1,-1,-1,-1,-1,-1,-1,-1,-1,-1,-1,-1,-1,-1,-1,-1,-1,-1,-1,-1,-1,-1,-1,-1,-1,-1,-1,-1,-1,-1,-1,-1,-1,-1,-1,-1,-1,-1,-1],"split_conditions":[7.0488806E2,2.876823E2,1.3668722E3,1.4093573E2,4.75799E2,9.653986E2,1.786295E3,8.1125084E1,2.0912807E2,3.80324E2,5.8474E2,8.3074585E2,1.0820236E3,1.5808806E3,1.90095E3,5.185E1,1.1074E2,1.7387119E2,2.4841476E2,3.2412115E2,8.178069E1,1.0172975E2,1.1714009E2,2.3115E1,7.11E0,1.8969867E2,1.260295E3,2.7027356E2,1.3E1,3.51555E2,3E0,3.56E1,6.74415E1,9.4814674E1,2.3011202E1,2.9922844E1,3.563668E1,4.386018E1,5.262958E1,4.9888966E1,6.235115E1,4.255E2,4.3438165E2,8.079823E1,5.3052496E2,1.031E2,2.2797926E1,1.4097247E2,5.996948E0,1.8110668E1,2.5E1,1.1012879E1,2.2E1,2.3037259E2,7.52E0,1.8669949E1,8.37E0,1.8E1,2.073803E1,2.4559381E1,2.8778564E1,2.6992615E1,1E1,-5.9601936E0,-5.673748E0,-5.3812513E0,-5.1047444E0,-4.8611293E0,-4.5834656E0,-4.3609996E0,-4.0581794E0,-3.7799351E0,-3.4635487E0,-3.1919224E0,-2.8416524E0,-2.5261633E0,-2.1175811E0,-1.7931073E0,-1.2770725E0,-1.3661193E0,-6.394083E-1,-3.7854397E-1,2.631118E-1,6.9099015E-1,1.356168E0,1.4465289E0,2.1769779E0,1.9946854E0,2.9080353E0,3.2841256E0,4.080479E0,3.9734719E0,4.7372656E0,6.198527E0,5.012545E0,6.916228E0,8.257581E0,8.552672E0,9.664189E0,9.981429E0,1.1774325E1,7.928333E0,1.30604925E1,1.4122464E1,1.5955439E1,1.4738784E1,1.7730085E1,1.7421946E1,2.1282288E1,2.610939E1,2.311951E1,3.2088013E1,2.6992615E1],"split_indices":[0,0,0,0,0,0,0,0,0,0,0,0,0,0,0,0,0,0,0,0,1,1,1,2,3,1,0,1,7,1,7,0,0,0,1,1,1,1,1,1,1,0,0,1,0,1,2,1,0,2,4,0,5,1,3,0,3,8,0,0,0,0,7,0,0,0,0,0,0,0,0,0,0,0,0,0,0,0,0,0,0,0,0,0,0,0,0,0,0,0,0,0,0,0,0,0,0,0,0,0,0,0,0,0,0,0,0,0,0,0,0,0,0],"split_type":[0,0,0,0,0,0,0,0,0,0,0,0,0,0,0,0,0,0,0,0,0,0,0,0,0,0,0,0,0,0,0,0,0,0,0,0,0,0,0,0,0,0,0,0,0,0,0,0,0,0,0,0,0,0,0,0,0,0,0,0,0,0,0,0,0,0,0,0,0,0,0,0,0,0,0,0,0,0,0,0,0,0,0,0,0,0,0,0,0,0,0,0,0,0,0,0,0,0,0,0,0,0,0,0,0,0,0,0,0,0,0,0,0],"sum_hessian":[4.8E4,4.2184E4,5.816E3,2.8492E4,1.3692E4,4.124E3,1.692E3,1.7256E4,1.1236E4,7.688E3,6.004E3,2.438E3,1.686E3,9.4E2,7.52E2,7.875E3,9.381E3,6.92E3,4.316E3,3.938E3,3.75E3,3.381E3,2.623E3,1.499E3,9.39E2,5.63E2,1.123E3,5.65E2,3.75E2,1.88E2,5.64E2,3.563E3,4.312E3,4.881E3,4.5E3,3.938E3,2.982E3,2.441E3,1.875E3,1.501E3,2.437E3,1.649E3,2.101E3,1.662E3,1.719E3,9.95E2,1.628E3,1.195E3,3.04E2,5.31E2,4.08E2,2.14E2,3.49E2,7.51E2,3.72E2,2.25E2,3.4E2,3.11E2,6.4E1,8.1E1,1.07E2,6.3E1,5.01E2,1.313E3,2.25E3,2.251E3,2.061E3,2.259E3,2.622E3,1.827E3,2.673E3,1.952E3,1.986E3,1.225E3,1.757E3,1.135E3,1.306E3,9.42E2,9.33E2,1.89E2,1.312E3,6.4E2,1.797E3,1.062E3,5.87E2,1.045E3,1.056E3,3.29E2,1.333E3,7.86E2,9.33E2,4.07E2,5.88E2,7.72E2,8.56E2,4.79E2,7.16E2,2.73E2,2.58E2,2.95E2,1.13E2,9E0,3.4E2,3.98E2,3.53E2,4.3E1,3.29E2,3.9E1,3.01E2,1.64E2,1.47E2,4.38E2,6.3E1],"tree_param":{"num_deleted":"0","num_feature":"12","num_nodes":"113","size_leaf_vector":"1"}},{"base_weights":[5.4207735E-2,-3.6612797E1,3.1075043E2,-7.59174E1,4.89804E1,2.3105301E2,4.9975858E2,-9.06716E1,-4.5170364E1,2.053301E1,9.110969E1,1.7988385E2,3.013291E2,4.2651825E2,5.720434E2,-1.02121E2,-7.965488E1,-5.5495655E1,-2.780968E1,3.833815E0,3.804986E1,7.471747E1,1.1443132E2,1.5757797E2,2.064358E2,2.7775153E2,3.4000717E2,3.929127E2,4.589001E2,5.521082E2,3.1390516E1,-1.0810318E2,-9.610679E1,-8.489363E1,-7.306571E1,-6.1084846E1,-4.823436E1,-3.35859E1,-1.7846634E1,-4.8117204E0,1.1056568E1,2.9494171E1,4.7452682E1,6.461849E1,8.480761E1,1.2549363E2,9.8613716E1,1.4930025E2,1.7575471E2,1.8829372E2,2.2142784E2,1.1656221E1,2.8548557E2,1.5733322E1,3.5728076E2,4.000143E2,1.6809956E1,2.0985682E1,4.8088626E2,2.5445766E1,5.7542004E2,-5.584512E0,-5.249351E0,-4.954762E0,-4.674543E0,-4.4021273E0,-4.0941377E0,-3.7777054E0,-3.4895756E0,-3.2588177E0,-2.9243069E0,-2.6973066E0,-2.297078E0,-1.8723547E0,-1.3719698E0,-1.1147908E0,-6.142535E-1,-8.3625764E-1,-1.3936852E-1,3.07652E-3,7.155051E-1,8.5982287E-1,1.6738564E0,1.6658131E0,2.5669827E0,2.6228478E0,3.4124036E0,3.8909333E0,4.5495152E0,5.3721E0,6.8040595E0,4.5458655E0,5.2105594E0,7.0553217E0,8.126944E0,8.35166E0,9.6877985E0,8.827601E0,1.0136654E1,1.1799435E1,1.0276036E1,1.2748438E1,1.4606479E1,1.08221E1,1.7983887E1,2.0779968E1,1.8070414E1,1.47764845E1,2.4223394E1,1.3712259E1,2.8859632E1],"categories":[],"categories_nodes":[],"categories_segments":[],"categories_sizes":[],"default_left":[0,0,0,0,0,0,0,0,0,0,0,0,0,0,0,0,0,0,0,0,0,0,0,0,0,0,0,0,0,0,0,0,0,0,0,0,0,0,0,0,0,0,0,0,0,0,0,0,0,0,0,0,0,0,0,0,0,0,0,0,0,0,0,0,0,0,0,0,0,0,0,0,0,0,0,0,0,0,0,0,0,0,0,0,0,0,0,0,0,0,0,0,0,0,0,0,0,0,0,0,0,0,0,0,0,0,0,0,0,0,0],"id":8,"left_children":[1,3,5,7,9,11,13,15,17,19,21,23,25,27,29,31,33,35,37,39,41,43,45,47,49,51,53,55,57,59,-1,61,63,65,67,69,71,73,75,77,79,81,83,85,87,89,91,93,95,97,99,-1,101,-1,103,105,-1,-1,107,-1,109,-1,-1,-1,-1,-1,-1,-1,-1,-1,-1,-1,-1,-1,-1,-1,-1,-1,-1,-1,-1,-1,-1,-1,-1,-1,-1,-1,-1,-1,-1,-1,-1,-1,-1,-1,-1,-1,-1,-1,-1,-1,-1,-1,-1,-1,-1,-1,-1,-1,-1],"loss_changes":[5.468531E8,1.4444594E8,7.621104E7,1.3344032E7,1.6191838E7,1.276904E7,7.707872E6,2.49968E6,1.709078E6,2.359591E6,2.073416E6,1.191088E6,1.274352E6,6.3584E5,4.90512E5,3.40256E5,3.4372E5,2.39874E5,2.0433175E5,2.5801172E5,3.153225E5,3.20702E5,3.80628E5,1.4333E5,2.13976E5,2.572E5,1.34456E5,1.6552E4,1.22112E5,2.74064E5,0E0,4.28E4,2.88E4,4.6276E4,3.1364E4,3.2094E4,3.1663E4,5.244275E4,3.2116531E4,4.531738E4,8.05235E4,1.00521625E5,1.012615E5,6.7222E4,6.197E4,2.37278E5,3.0547E4,6.1784E4,2.2114E4,3.7449E4,6.9394E4,0E0,8.6708E4,0E0,3.288E4,4.7148E4,0E0,0E0,1.2172E4,0E0,3.2832E4,0E0,0E0,0E0,0E0,0E0,0E0,0E0,0E0,0E0,0E0,0E0,0E0,0E0,0E0,0E0,0E0,0E0,0E0,0E0,0E0,0E0,0E0,0E0,0E0,0E0,0E0,0E0,0E0,0E0,0E0,0E0,0E0,0E0,0E0,0E0,0E0,0E0,0E0,0E0,0E0,0E0,0E0,0E0,0E0,0E0,0E0,0E0,0E0,0E0,0E0],"parents":[2147483647,0,0,1,1,2,2,3,3,4,4,5,5,6,6,7,7,8,8,9,9,10,10,11,11,12,12,13,13,14,14,15,15,16,16,17,17,18,18,19,19,20,20,21,21,22,22,23,23,24,24,25,25,26,26,27,27,28,28,29,29,31,31,32,32,33,33,34,34,35,35,36,36,37,37,38,38,39,39,40,40,41,41,42,42,43,43,44,44,45,45,46,46,47,47,48,48,49,49,50,50,52,52,54,54,55,55,58,58,60,60],"right_children":[2,4,6,8,10,12,14,16,18,20,22,24,26,28,30,32,34,36,38,40,42,44,46,48,50,52,54,56,58,60,-1,62,64,66,68,70,72,74,76,78,80,82,84,86,88,90,92,94,96,98,100,-1,102,-1,104,106,-1,-1,108,-1,110,-1,-1,-1,-1,-1,-1,-1,-1,-1,-1,-1,-1,-1,-1,-1,-1,-1,-1,-1,-1,-1,-1,-1,-1,-1,-1,-1,-1,-1,-1,-1,-1,-1,-1,-1,-1,-1,-1,-1,-1,-1,-1,-1,-1,-1,-1,-1,-1,-1,-1],"split_conditions":[7.6193164E2,3.1000327E2,1.432505E3,1.6148018E2,5.1272E2,1.04351E3,1.786295E3,9.2575E1,2.3427798E2,4.076806E2,6.2775433E2,8.7782275E2,1.260295E3,1.5808806E3,2.171545E3,6.1079113E1,1.2768E2,1.9764023E2,2.795E2,3.55045E2,4.591556E2,1.1035092E2,2.29E1,7.11E0,7.11E0,7.11E0,2.4872063E2,2.5E1,3.147E2,3.51555E2,3.1390516E1,4.28903E1,7.6475E1,2.0906326E1,2.839E1,3.281E1,3.78E1,2.53E0,6.0035538E1,5.5152008E1,6.563598E1,7.572529E1,8.274089E1,8.789E1,5.7649E2,1.26862625E2,6.614203E2,1.5410333E2,2.5E1,1.737E2,1.4E1,1.1656221E1,2.0033E2,1.5733322E1,2.2E1,1.4E1,1.6809956E1,2.0985682E1,2.1E1,2.5445766E1,2.1E1,-5.584512E0,-5.249351E0,-4.954762E0,-4.674543E0,-4.4021273E0,-4.0941377E0,-3.7777054E0,-3.4895756E0,-3.2588177E0,-2.9243069E0,-2.6973066E0,-2.297078E0,-1.8723547E0,-1.3719698E0,-1.1147908E0,-6.142535E-1,-8.3625764E-1,-1.3936852E-1,3.07652E-3,7.155051E-1,8.5982287E-1,1.6738564E0,1.6658131E0,2.5669827E0,2.6228478E0,3.4124036E0,3.8909333E0,4.5495152E0,5.3721E0,6.8040595E0,4.5458655E0,5.2105594E0,7.0553217E0,8.126944E0,8.35166E0,9.6877985E0,8.827601E0,1.0136654E1,1.1799435E1,1.0276036E1,1.2748438E1,1.4606479E1,1.08221E1,1.7983887E1,2.0779968E1,1.8070414E1,1.47764845E1,2.4223394E1,1.3712259E1,2.8859632E1],"split_indices":[0,0,0,0,0,0,0,0,0,0,0,0,0,0,0,0,0,0,0,0,0,1,2,3,3,3,1,8,1,1,0,0,0,1,1,1,1,3,1,1,1,1,1,1,0,1,0,1,4,1,7,0,1,0,5,7,0,0,5,0,5,0,0,0,0,0,0,0,0,0,0,0,0,0,0,0,0,0,0,0,0,0,0,0,0,0,0,0,0,0,0,0,0,0,0,0,0,0,0,0,0,0,0,0,0,0,0,0,0,0,0],"split_type":[0,0,0,0,0,0,0,0,0,0,0,0,0,0,0,0,0,0,0,0,0,0,0,0,0,0,0,0,0,0,0,0,0,0,0,0,0,0,0,0,0,0,0,0,0,0,0,0,0,0,0,0,0,0,0,0,0,0,0,0,0,0,0,0,0,0,0,0,0,0,0,0,0,0,0,0,0,0,0,0,0,0,0,0,0,0,0,0,0,0,0,0,0,0,0,0,0,0,0,0,0,0,0,0,0,0,0,0,0,0,0],"sum_hessian":[4.8E4,4.2934E4,5.066E3,2.9423E4,1.3511E4,3.565E3,1.501E3,1.9881E4,9.542E3,8.066E3,5.445E3,2.065E3,1.5E3,7.49E2,7.52E2,9.745E3,1.0136E4,5.982E3,3.56E3,4.13E3,3.936E3,3.2E3,2.245E3,1.126E3,9.39E2,9.37E2,5.63E2,3.74E2,3.75E2,5.62E2,1.9E2,4.877E3,4.868E3,5.64E3,4.496E3,3.376E3,2.606E3,2.252E3,1.308E3,1.88E3,2.25E3,2.063E3,1.873E3,1.603E3,1.597E3,1.317E3,9.28E2,7.8E2,3.46E2,4.31E2,5.08E2,1.43E2,7.94E2,2.36E2,3.27E2,3.27E2,4.7E1,1.42E2,2.33E2,2.05E2,3.57E2,2.251E3,2.626E3,2.255E3,2.613E3,2.743E3,2.897E3,2.542E3,1.954E3,1.302E3,2.074E3,7.4E2,1.866E3,1.38E3,8.72E2,7.25E2,5.83E2,2.72E2,1.608E3,5.14E2,1.736E3,5.06E2,1.557E3,4.06E2,1.467E3,3.72E2,1.231E3,7.56E2,8.41E2,4.91E2,8.26E2,3.98E2,5.3E2,4.89E2,2.91E2,2.4E2,1.06E2,2.45E2,1.86E2,2.58E2,2.5E2,1.49E2,6.45E2,7E0,3.2E2,2.26E2,1.01E2,6E0,2.27E2,3E0,3.54E2],"tree_param":{"num_deleted":"0","num_feature":"12","num_nodes":"111","size_leaf_vector":"1"}},{"base_weights":[5.9068166E-2,-3.8313763E1,2.6817084E2,-7.398139E1,3.696892E1,1.8712625E2,4.4611078E2,-8.921683E1,-5.121311E1,9.722453E0,7.099475E1,1.4725859E2,2.5695593E2,3.6467572E2,5.271579E2,-9.958563E1,-8.108536E1,-6.1673084E1,-3.7065784E1,-4.7336164E0,2.4195219E1,5.7424847E1,9.091012E1,1.2881966E2,1.7192068E2,2.2095532E2,2.7835123E2,3.388508E2,4.0207614E2,4.7469296E2,5.611395E2,-1.0491332E2,-9.562053E1,-8.564495E1,-7.5924995E1,-6.6421455E1,-5.6012066E1,-4.3960304E1,-2.9064909E1,-1.3255716E1,9.5493436E-1,1.2198745E1,2.9469532E1,4.8342533E1,6.662852E1,7.956114E1,9.900269E1,1.3591283E2,1.0561506E2,1.6009538E2,1.8795044E2,9.73148E0,2.3220158E2,2.5818582E2,2.97504E2,1.593584E1,1.802234E1,1.905706E1,2.1558119E1,2.156266E1,5.0256305E2,2.542916E1,5.740221E2,-5.406474E0,-5.1561246E0,-4.8941226E0,-4.6505113E0,-4.436967E0,-4.164544E0,-3.9571126E0,-3.6841648E0,-3.4676995E0,-3.1948445E0,-2.9834197E0,-2.6727226E0,-2.4657736E0,-2.0606987E0,-1.6478447E0,-1.1445435E0,-1.2460984E0,-5.7787174E-1,-4.6722943E-1,1.7525177E-1,2.0177141E-1,8.0977696E-1,1.1091739E0,1.8038229E0,2.1525395E0,2.871681E0,2.9329302E0,3.6858227E0,3.0685797E0,4.1043887E0,5.465278E0,4.536842E0,6.070682E0,7.3260646E0,4.9816165E0,5.5650983E0,6.2743773E0,8.188639E0,8.999895E0,1.0714149E1,1.0413686E1,1.2019954E1,1.0343951E1,1.3160118E1,9.794421E0,1.499723E1,1.5304439E1,2.537566E1,2.4152212E1,2.9053568E1],"categories":[],"categories_nodes":[],"categories_segments":[],"categories_sizes":[],"default_left":[0,0,0,0,0,0,0,0,0,0,0,0,0,0,0,0,0,0,0,0,0,0,0,0,0,0,0,0,0,0,0,0,0,0,0,0,0,0,0,0,0,0,0,0,0,0,0,0,0,0,0,0,0,0,0,0,0,0,0,0,0,0,0,0,0,0,0,0,0,0,0,0,0,0,0,0,0,0,0,0,0,0,0,0,0,0,0,0,0,0,0,0,0,0,0,0,0,0,0,0,0,0,0,0,0,0,0,0,0,0,0,0,0],"id":9,"left_children":[1,3,5,7,9,11,13,15,17,19,21,23,25,27,29,31,33,35,37,39,41,43,45,47,49,51,53,55,57,59,61,63,65,67,69,71,73,75,77,79,81,83,85,87,89,91,93,95,97,99,101,-1,103,105,107,-1,-1,-1,-1,-1,109,-1,111,-1,-1,-1,-1,-1,-1,-1,-1,-1,-1,-1,-1,-1,-1,-1,-1,-1,-1,-1,-1,-1,-1,-1,-1,-1,-1,-1,-1,-1,-1,-1,-1,-1,-1,-1,-1,-1,-1,-1,-1,-1,-1,-1,-1,-1,-1,-1,-1,-1,-1],"loss_changes":[4.9385453E8,1.1275778E8,8.65871E7,9.8792E6,1.2514936E7,1.1462656E7,1.2215936E7,1.431088E6,1.688392E6,1.5688408E6,1.61709E6,1.174732E6,1.093856E6,7.7264E5,1.409504E6,1.48352E5,2.1872E5,1.72804E5,2.66755E5,1.819036E5,2.36725E5,2.95448E5,2.15392E5,2.34182E5,1.82784E5,1.21788E5,2.85072E5,1.2992E5,6.644E4,2.38488E5,9.0592E4,7.22E3,1.6344E4,2.9572E4,2.6616E4,2.197E4,2.4883E4,3.63235E4,5.33595E4,2.9470469E4,5.9154867E4,3.7325297E4,1.24456E5,8.42175E4,9.57765E4,4.17015E4,1.10586E5,1.59558E5,1.091E3,6.2554E4,6.006E4,0E0,2.6428E4,6.4974E4,5.8804E4,0E0,0E0,0E0,0E0,0E0,6.154E4,0E0,5.344E3,0E0,0E0,0E0,0E0,0E0,0E0,0E0,0E0,0E0,0E0,0E0,0E0,0E0,0E0,0E0,0E0,0E0,0E0,0E0,0E0,0E0,0E0,0E0,0E0,0E0,0E0,0E0,0E0,0E0,0E0,0E0,0E0,0E0,0E0,0E0,0E0,0E0,0E0,0E0,0E0,0E0,0E0,0E0,0E0,0E0,0E0,0E0,0E0,0E0,0E0],"parents":[2147483647,0,0,1,1,2,2,3,3,4,4,5,5,6,6,7,7,8,8,9,9,10,10,11,11,12,12,13,13,14,14,15,15,16,16,17,17,18,18,19,19,20,20,21,21,22,22,23,23,24,24,25,25,26,26,27,27,28,28,29,29,30,30,31,31,32,32,33,33,34,34,35,35,36,36,37,37,38,38,39,39,40,40,41,41,42,42,43,43,44,44,45,45,46,46,47,47,48,48,49,49,50,50,52,52,53,53,54,54,60,60,62,62],"right_children":[2,4,6,8,10,12,14,16,18,20,22,24,26,28,30,32,34,36,38,40,42,44,46,48,50,52,54,56,58,60,62,64,66,68,70,72,74,76,78,80,82,84,86,88,90,92,94,96,98,100,102,-1,104,106,108,-1,-1,-1,-1,-1,110,-1,112,-1,-1,-1,-1,-1,-1,-1,-1,-1,-1,-1,-1,-1,-1,-1,-1,-1,-1,-1,-1,-1,-1,-1,-1,-1,-1,-1,-1,-1,-1,-1,-1,-1,-1,-1,-1,-1,-1,-1,-1,-1,-1,-1,-1,-1,-1,-1,-1,-1,-1],"split_conditions":[6.935135E2,2.876823E2,1.311465E3,1.396376E2,4.700251E2,9.653986E2,1.6853E3,7.886396E1,2.0205858E2,3.7604938E2,5.8474E2,8.114421E2,1.0820236E3,1.5021E3,1.90095E3,4.93E1,1.09595E2,1.6836514E2,2.4085063E2,3.2412115E2,7.572529E1,1.0172975E2,1.18652916E2,2.3115E1,7.11E0,7.11E0,2.3037259E2,2.7027356E2,3.147E2,3.34305E2,1.6308867E1,3.383E1,1.2665E1,1.7350096E1,2.2738325E1,2.873E1,3.43769E1,1.57E0,2.63E0,4.9888966E1,6.0035538E1,6.563598E1,4.255E2,5.2472235E2,5.3052496E2,3.31E0,2.22E1,1.4097247E2,7.313183E2,1.25205E2,1.7259365E1,9.73148E0,1.8969867E2,1.737E2,2.2E1,1.593584E1,1.802234E1,1.905706E1,2.1558119E1,2.156266E1,2.1E1,2.542916E1,3E0,-5.406474E0,-5.1561246E0,-4.8941226E0,-4.6505113E0,-4.436967E0,-4.164544E0,-3.9571126E0,-3.6841648E0,-3.4676995E0,-3.1948445E0,-2.9834197E0,-2.6727226E0,-2.4657736E0,-2.0606987E0,-1.6478447E0,-1.1445435E0,-1.2460984E0,-5.7787174E-1,-4.6722943E-1,1.7525177E-1,2.0177141E-1,8.0977696E-1,1.1091739E0,1.8038229E0,2.1525395E0,2.871681E0,2.9329302E0,3.6858227E0,3.0685797E0,4.1043887E0,5.465278E0,4.536842E0,6.070682E0,7.3260646E0,4.9816165E0,5.5650983E0,6.2743773E0,8.188639E0,8.999895E0,1.0714149E1,1.0413686E1,1.2019954E1,1.0343951E1,1.3160118E1,9.794421E0,1.499723E1,1.5304439E1,2.537566E1,2.4152212E1,2.9053568E1],"split_indices":[0,0,0,0,0,0,0,0,0,0,0,0,0,0,0,0,0,0,0,0,1,1,1,2,3,3,1,1,1,1,2,0,1,1,1,1,1,3,3,1,1,1,0,0,0,3,2,1,0,1,2,0,1,1,5,0,0,0,0,0,5,0,7,0,0,0,0,0,0,0,0,0,0,0,0,0,0,0,0,0,0,0,0,0,0,0,0,0,0,0,0,0,0,0,0,0,0,0,0,0,0,0,0,0,0,0,0,0,0,0,0,0,0],"split_type":[0,0,0,0,0,0,0,0,0,0,0,0,0,0,0,0,0,0,0,0,0,0,0,0,0,0,0,0,0,0,0,0,0,0,0,0,0,0,0,0,0,0,0,0,0,0,0,0,0,0,0,0,0,0,0,0,0,0,0,0,0,0,0,0,0,0,0,0,0,0,0,0,0,0,0,0,0,0,0,0,0,0,0,0,0,0,0,0,0,0,0,0,0,0,0,0,0,0,0,0,0,0,0,0,0,0,0,0,0,0,0,0,0],"sum_hessian":[4.8E4,4.1991E4,6.009E3,2.8492E4,1.3499E4,4.13E3,1.879E3,1.7068E4,1.1424E4,7.497E3,6.002E3,2.631E3,1.499E3,9.4E2,9.39E2,7.497E3,9.571E3,6.566E3,4.858E3,3.751E3,3.746E3,3.572E3,2.43E3,1.509E3,1.122E3,5.63E2,9.36E2,5.62E2,3.78E2,3.75E2,5.64E2,3.188E3,4.309E3,5.073E3,4.498E3,3.565E3,3.001E3,2.607E3,2.251E3,1.501E3,2.25E3,1.145E3,2.601E3,1.801E3,1.771E3,1.016E3,1.414E3,1.152E3,3.57E2,6.52E2,4.7E2,1.74E2,3.89E2,4.63E2,4.73E2,2.99E2,2.63E2,2.28E2,1.5E2,1.53E2,2.22E2,1.19E2,4.45E2,1.119E3,2.069E3,2.289E3,2.02E3,2.176E3,2.897E3,1.833E3,2.665E3,1.637E3,1.928E3,1.226E3,1.775E3,8.78E2,1.729E3,1.378E3,8.73E2,1.89E2,1.312E3,4.46E2,1.804E3,3.77E2,7.68E2,1.239E3,1.362E3,1.142E3,6.59E2,8.38E2,9.33E2,1.27E2,8.89E2,6.24E2,7.9E2,4.92E2,6.6E2,1.83E2,1.74E2,6.6E1,5.86E2,3.67E2,1.03E2,1.06E2,2.83E2,4.5E1,4.18E2,1.3E1,4.6E2,7E0,2.15E2,3.7E1,4.08E2],"tree_param":{"num_deleted":"0","num_feature":"12","num_nodes":"113","size_leaf_vector":"1"}},{"base_weights":[6.2961854E-2,-3.4398018E1,2.6962622E2,-6.958175E1,3.975852E1,1.9402214E2,4.368856E2,-8.299926E1,-4.4666298E1,1.4149774E1,7.6367836E1,1.5172658E2,2.5754776E2,3.5643826E2,5.0094983E2,-9.2763596E1,-7.362793E1,-5.351835E1,-2.9648388E1,7.331913E-1,3.11002E1,6.3595116E1,9.8464836E1,1.3345781E2,1.770099E2,2.3090668E2,2.83845E2,3.2964447E2,3.820795E2,4.5112387E2,5.3322174E2,-9.824569E1,-8.788508E1,-7.824577E1,-6.840831E1,-5.8228085E1,-4.6738987E1,-3.493197E1,-2.1708544E1,-7.2281346E0,8.704811E0,2.322435E1,3.846235E1,5.4659966E1,7.366384E1,9.0119934E1,1.1236074E2,1.26790764E2,1.522196E2,1.5634166E2,1.8573763E2,9.701319E0,2.4075435E2,2.6910922E2,3.0318515E2,1.5373191E1,3.4742633E2,3.957387E2,1.7182922E1,2.049153E1,4.7761734E2,5.415843E2,2.296481E1,-5.0830073E0,-4.8004775E0,-4.52331E0,-4.262644E0,-4.0443754E0,-3.7812524E0,-3.5703523E0,-3.3021245E0,-3.0969548E0,-2.7895803E0,-2.508912E0,-2.1898284E0,-1.9496975E0,-1.5175672E0,-1.3009104E0,-8.4028465E-1,-8.358598E-1,-2.492969E-1,1.6979738E0,3.7569132E-1,6.2398654E-1,1.3274276E0,1.5480365E0,2.1337607E0,2.0932565E0,2.9002717E0,3.3010044E0,3.917439E0,3.801455E0,4.741285E0,6.0868382E0,4.7897935E0,6.582907E0,5.339926E0,7.1632843E0,8.368332E0,6.78816E0,8.054608E0,8.334437E0,9.737668E0,1.1205711E1,1.2660535E1,1.1501909E1,1.3726218E1,9.075164E0,1.5267715E1,7.1676583E0,1.7437849E1,2.027687E1,1.6520063E1,2.4646288E1,1.9995447E1,2.310649E1,2.7596699E1],"categories":[],"categories_nodes":[],"categories_segments":[],"categories_sizes":[],"default_left":[0,0,0,0,0,0,0,0,0,0,0,0,0,0,0,0,0,0,0,0,0,0,0,0,0,0,0,0,0,0,0,0,0,0,0,0,0,0,0,0,0,0,0,0,0,0,0,0,0,0,0,0,0,0,0,0,0,0,0,0,0,0,0,0,0,0,0,0,0,0,0,0,0,0,0,0,0,0,0,0,0,0,0,0,0,0,0,0,0,0,0,0,0,0,0,0,0,0,0,0,0,0,0,0,0,0,0,0,0,0,0,0,0,0,0,0,0],"id":10,"left_children":[1,3,5,7,9,11,13,15,17,19,21,23,25,27,29,31,33,35,37,39,41,43,45,47,49,51,53,55,57,59,61,63,65,67,69,71,73,75,77,79,81,83,85,87,89,91,93,95,97,99,101,-1,103,105,107,-1,109,111,-1,-1,113,115,-1,-1,-1,-1,-1,-1,-1,-1,-1,-1,-1,-1,-1,-1,-1,-1,-1,-1,-1,-1,-1,-1,-1,-1,-1,-1,-1,-1,-1,-1,-1,-1,-1,-1,-1,-1,-1,-1,-1,-1,-1,-1,-1,-1,-1,-1,-1,-1,-1,-1,-1,-1,-1,-1,-1],"loss_changes":[4.4591046E8,1.1104882E8,6.871936E7,9.646304E6,1.2839176E7,1.0033936E7,8.546816E6,1.709896E6,1.341898E6,1.8329566E6,1.584716E6,1.017028E6,9.83232E5,3.92064E5,1.270944E6,2.36984E5,2.25508E5,2.0025E5,1.56557E5,2.856539E5,2.0558475E5,3.17601E5,2.291E5,1.44812E5,1.40884E5,2.25312E5,1.31872E5,4.148E4,6.2904E4,2.156E5,1.00544E5,2.3188E4,2.5368E4,2.9022E4,2.7238E4,3.0424E4,2.42255E4,4.0681E4,3.1278312E4,4.783096E4,6.739008E4,6.1209625E4,5.67975E4,7.8815E4,5.4918E4,7.8594E4,1.07929E5,8.0719E4,2.1999E4,6.089E3,8.037E4,0E0,6.492E4,2.867E4,2.7986E4,0E0,4.584E3,4.0788E4,0E0,0E0,6.8152E4,1.57744E5,0E0,0E0,0E0,0E0,0E0,0E0,0E0,0E0,0E0,0E0,0E0,0E0,0E0,0E0,0E0,0E0,0E0,0E0,0E0,0E0,0E0,0E0,0E0,0E0,0E0,0E0,0E0,0E0,0E0,0E0,0E0,0E0,0E0,0E0,0E0,0E0,0E0,0E0,0E0,0E0,0E0,0E0,0E0,0E0,0E0,0E0,0E0,0E0,0E0,0E0,0E0,0E0,0E0,0E0,0E0],"parents":[2147483647,0,0,1,1,2,2,3,3,4,4,5,5,6,6,7,7,8,8,9,9,10,10,11,11,12,12,13,13,14,14,15,15,16,16,17,17,18,18,19,19,20,20,21,21,22,22,23,23,24,24,25,25,26,26,27,27,28,28,29,29,30,30,31,31,32,32,33,33,34,34,35,35,36,36,37,37,38,38,39,39,40,40,41,41,42,42,43,43,44,44,45,45,46,46,47,47,48,48,49,49,50,50,52,52,53,53,54,54,56,56,57,57,60,60,61,61],"right_children":[2,4,6,8,10,12,14,16,18,20,22,24,26,28,30,32,34,36,38,40,42,44,46,48,50,52,54,56,58,60,62,64,66,68,70,72,74,76,78,80,82,84,86,88,90,92,94,96,98,100,102,-1,104,106,108,-1,110,112,-1,-1,114,116,-1,-1,-1,-1,-1,-1,-1,-1,-1,-1,-1,-1,-1,-1,-1,-1,-1,-1,-1,-1,-1,-1,-1,-1,-1,-1,-1,-1,-1,-1,-1,-1,-1,-1,-1,-1,-1,-1,-1,-1,-1,-1,-1,-1,-1,-1,-1,-1,-1,-1,-1,-1,-1,-1,-1],"split_conditions":[7.313183E2,2.9665982E2,1.3668722E3,1.5218475E2,4.96455E2,1.0021908E3,1.6853E3,8.911916E1,2.2242622E2,4.0235E2,6.193995E2,8.5136E2,1.1681719E3,1.5021E3,1.90095E3,5.745506E1,1.20175E2,1.8848653E2,2.632998E2,3.5018503E2,8.7E1,1.0920675E2,1.3631119E2,7.11E0,1.5744588E2,7.11E0,2.4872063E2,2.7027356E2,1.3E1,3.34305E2,1E1,3.8447956E1,7.401924E1,2.0059214E1,2.5314579E1,3.0991104E1,1.6E0,2.13E0,5.6E1,5.5152008E1,1.2879348E1,7.072E1,4.4420816E2,8.522667E1,5.55795E2,1.08E2,2.29E1,2.323E1,2.5E1,1.3429478E2,1.74E1,9.701319E0,5.3E0,7.11E0,2.2E1,1.5373191E1,1.071E1,2.5E1,1.7182922E1,2.049153E1,2.1E1,3E0,2.296481E1,-5.0830073E0,-4.8004775E0,-4.52331E0,-4.262644E0,-4.0443754E0,-3.7812524E0,-3.5703523E0,-3.3021245E0,-3.0969548E0,-2.7895803E0,-2.508912E0,-2.1898284E0,-1.9496975E0,-1.5175672E0,-1.3009104E0,-8.4028465E-1,-8.358598E-1,-2.492969E-1,1.6979738E0,3.7569132E-1,6.2398654E-1,1.3274276E0,1.5480365E0,2.1337607E0,2.0932565E0,2.9002717E0,3.3010044E0,3.917439E0,3.801455E0,4.741285E0,6.0868382E0,4.7897935E0,6.582907E0,5.339926E0,7.1632843E0,8.368332E0,6.78816E0,8.054608E0,8.334437E0,9.737668E0,1.1205711E1,1.2660535E1,1.1501909E1,1.3726218E1,9.075164E0,1.5267715E1,7.1676583E0,1.7437849E1,2.027687E1,1.6520063E1,2.4646288E1,1.9995447E1,2.310649E1,2.7596699E1],"split_indices":[0,0,0,0,0,0,0,0,0,0,0,0,0,0,0,0,0,0,0,0,1,1,1,3,1,3,1,1,7,1,7,0,0,1,1,1,3,3,1,1,2,1,0,1,0,1,2,2,4,1,4,0,6,3,5,0,2,8,0,0,8,7,0,0,0,0,0,0,0,0,0,0,0,0,0,0,0,0,0,0,0,0,0,0,0,0,0,0,0,0,0,0,0,0,0,0,0,0,0,0,0,0,0,0,0,0,0,0,0,0,0,0,0,0,0,0,0],"split_type":[0,0,0,0,0,0,0,0,0,0,0,0,0,0,0,0,0,0,0,0,0,0,0,0,0,0,0,0,0,0,0,0,0,0,0,0,0,0,0,0,0,0,0,0,0,0,0,0,0,0,0,0,0,0,0,0,0,0,0,0,0,0,0,0,0,0,0,0,0,0,0,0,0,0,0,0,0,0,0,0,0,0,0,0,0,0,0,0,0,0,0,0,0,0,0,0,0,0,0,0,0,0,0,0,0,0,0,0,0,0,0,0,0,0,0,0,0],"sum_hessian":[4.8E4,4.256E4,5.44E3,2.8865E4,1.3695E4,3.748E3,1.692E3,1.876E4,1.0105E4,8.059E3,5.636E3,2.252E3,1.496E3,7.53E2,9.39E2,9.183E3,9.577E3,6.356E3,3.749E3,4.499E3,3.56E3,3.574E3,2.062E3,1.311E3,9.41E2,7.48E2,7.48E2,3.75E2,3.78E2,3.75E2,5.64E2,4.315E3,4.868E3,5.074E3,4.503E3,3.746E3,2.61E3,2.249E3,1.5E3,2.251E3,2.248E3,1.722E3,1.838E3,1.897E3,1.677E3,1.293E3,7.69E2,9.73E2,3.38E2,2.85E2,6.56E2,1.62E2,5.86E2,4.33E2,3.15E2,1.75E2,2E2,2.72E2,1.06E2,1.53E2,2.22E2,5.01E2,6.3E1,1.69E3,2.625E3,2.441E3,2.427E3,2.512E3,2.562E3,1.973E3,2.53E3,1.475E3,2.271E3,1.196E3,1.414E3,1.188E3,1.061E3,7.96E2,7.04E2,4.29E2,1.822E3,1E2,2.148E3,4.08E2,1.314E3,6.64E2,1.174E3,3.96E2,1.501E3,6.43E2,1.034E3,3.28E2,9.65E2,4.87E2,2.82E2,7.78E2,1.95E2,2.19E2,1.19E2,5.9E1,2.26E2,2.17E2,4.39E2,2.59E2,3.27E2,5.8E1,3.75E2,7E0,3.08E2,2E0,1.98E2,2.32E2,4E1,1.81E2,4.1E1,6.3E1,4.38E2],"tree_param":{"num_deleted":"0","num_feature":"12","num_nodes":"117","size_leaf_vector":"1"}},{"base_weights":[6.7416765E-2,-3.458531E1,2.4218675E2,-6.677503E1,3.3356644E1,1.6897224E2,4.0293515E2,-8.053353E1,-4.6213932E1,8.064828E0,6.3232296E1,1.3298755E2,2.3200075E2,3.2946976E2,4.7605002E2,-8.9481766E1,-7.285931E1,-5.539657E1,-3.3072662E1,-4.2965107E0,2.1086924E1,4.8438335E1,7.892181E1,1.163441E2,1.5524811E2,1.9931752E2,2.5142587E2,3.062333E2,3.6311795E2,4.287409E2,5.0669104E2,-9.424592E1,-8.5524216E1,-7.682855E1,-6.834952E1,-5.9951447E1,-5.0237312E1,-3.847269E1,-2.4917566E1,-1.2036579E1,8.700283E-1,1.4624609E1,2.8838253E1,4.251062E1,5.8119102E1,6.892641E1,8.74864E1,1.227483E2,9.53933E1,1.4445248E2,1.6988567E2,1.7890909E2,2.1128465E2,2.3295415E2,2.6897748E2,1.440336E1,3.257166E2,1.7186771E1,1.9505394E1,1.9473606E1,4.5393665E2,1.9405554E1,5.1123413E2,-4.905235E0,-4.641611E0,-4.3918467E0,-4.1596694E0,-3.953666E0,-3.7141254E0,-3.5699234E0,-3.3256238E0,-3.1250806E0,-2.879601E0,-2.6512682E0,-2.3584564E0,-2.15786E0,-1.7799801E0,-1.5853847E0,-1.0861672E0,-9.501444E-1,-4.796597E-1,-5.416092E-1,1.4109837E-1,1.6194304E0,6.3014585E-1,1.1600631E0,1.6711558E0,1.5437824E0,2.28822E0,2.4927268E0,3.1712613E0,3.2055066E0,3.9215448E0,4.072971E0,5.008899E0,5.470119E0,6.6258264E0,4.5028358E0,5.0229626E0,5.645771E0,7.3903017E0,8.040461E0,9.56424E0,7.2934546E0,9.134124E0,6.134539E0,1.0663156E1,9.27682E0,1.1880197E1,8.224444E0,1.3543744E1,1.0135995E1,1.6389563E1,2.3420744E1,1.901948E1,2.5949339E1,2.195515E1],"categories":[],"categories_nodes":[],"categories_segments":[],"categories_sizes":[],"default_left":[0,0,0,0,0,0,0,0,0,0,0,0,0,0,0,0,0,0,0,0,0,0,0,0,0,0,0,0,0,0,0,0,0,0,0,0,0,0,0,0,0,0,0,0,0,0,0,0,0,0,0,0,0,0,0,0,0,0,0,0,0,0,0,0,0,0,0,0,0,0,0,0,0,0,0,0,0,0,0,0,0,0,0,0,0,0,0,0,0,0,0,0,0,0,0,0,0,0,0,0,0,0,0,0,0,0,0,0,0,0,0,0,0,0,0,0,0],"id":11,"left_children":[1,3,5,7,9,11,13,15,17,19,21,23,25,27,29,31,33,35,37,39,41,43,45,47,49,51,53,55,57,59,61,63,65,67,69,71,73,75,77,79,81,83,85,87,89,91,93,95,97,99,101,103,105,107,109,-1,111,-1,-1,-1,113,-1,115,-1,-1,-1,-1,-1,-1,-1,-1,-1,-1,-1,-1,-1,-1,-1,-1,-1,-1,-1,-1,-1,-1,-1,-1,-1,-1,-1,-1,-1,-1,-1,-1,-1,-1,-1,-1,-1,-1,-1,-1,-1,-1,-1,-1,-1,-1,-1,-1,-1,-1,-1,-1,-1,-1],"loss_changes":[4.0274134E8,9.184011E7,7.066429E7,8.056664E6,1.0200219E7,9.338512E6,9.941376E6,1.165624E6,1.376838E6,1.1771071E6,1.432706E6,9.57076E5,9.022E5,6.24536E5,1.145408E6,1.40436E5,1.59328E5,1.55002E5,2.06107E5,1.5005056E5,1.7795425E5,1.804725E5,2.5096E5,1.9089E5,1.52918E5,9.9946E4,2.41124E5,1.05436E5,6.4172E4,1.95216E5,1.05968E5,1.0334E4,1.594E4,2.2028E4,1.9406E4,1.7856E4,2.4522E4,3.65125E4,4.000025E4,2.5383797E4,5.1447918E4,6.940731E4,4.10415E4,7.358275E4,4.98125E4,5.86005E4,1.1522E5,1.35814E5,6.3125E2,5.2371E4,6.0721E4,1.57E2,3.5183E4,5.8218E4,4.942E4,0E0,9.16E2,0E0,0E0,0E0,5.928E4,0E0,7.464E4,0E0,0E0,0E0,0E0,0E0,0E0,0E0,0E0,0E0,0E0,0E0,0E0,0E0,0E0,0E0,0E0,0E0,0E0,0E0,0E0,0E0,0E0,0E0,0E0,0E0,0E0,0E0,0E0,0E0,0E0,0E0,0E0,0E0,0E0,0E0,0E0,0E0,0E0,0E0,0E0,0E0,0E0,0E0,0E0,0E0,0E0,0E0,0E0,0E0,0E0,0E0,0E0,0E0,0E0],"parents":[2147483647,0,0,1,1,2,2,3,3,4,4,5,5,6,6,7,7,8,8,9,9,10,10,11,11,12,12,13,13,14,14,15,15,16,16,17,17,18,18,19,19,20,20,21,21,22,22,23,23,24,24,25,25,26,26,27,27,28,28,29,29,30,30,31,31,32,32,33,33,34,34,35,35,36,36,37,37,38,38,39,39,40,40,41,41,42,42,43,43,44,44,45,45,46,46,47,47,48,48,49,49,50,50,51,51,52,52,53,53,54,54,56,56,60,60,62,62],"right_children":[2,4,6,8,10,12,14,16,18,20,22,24,26,28,30,32,34,36,38,40,42,44,46,48,50,52,54,56,58,60,62,64,66,68,70,72,74,76,78,80,82,84,86,88,90,92,94,96,98,100,102,104,106,108,110,-1,112,-1,-1,-1,114,-1,116,-1,-1,-1,-1,-1,-1,-1,-1,-1,-1,-1,-1,-1,-1,-1,-1,-1,-1,-1,-1,-1,-1,-1,-1,-1,-1,-1,-1,-1,-1,-1,-1,-1,-1,-1,-1,-1,-1,-1,-1,-1,-1,-1,-1,-1,-1,-1,-1,-1,-1,-1,-1,-1,-1],"split_conditions":[6.935135E2,2.876823E2,1.311465E3,1.396376E2,4.6452695E2,9.653986E2,1.6853E3,8.1125084E1,2.0404285E2,3.7604938E2,5.6128864E2,8.114421E2,1.0820236E3,1.5021E3,1.90095E3,5.185E1,1.1074E2,1.6836514E2,2.4841476E2,3.2412115E2,8.432E1,1.0550152E2,1.18652916E2,2.3115E1,7.11E0,1.8969867E2,2.3037259E2,2.7027356E2,3.147E2,3.34305E2,2.9742017E2,3.234E1,1.2897778E1,1.87E1,2.2505445E1,2.898867E1,3.6424423E1,4.145077E1,4.84826E1,2.47E0,5.746E1,1.326E1,4.255E2,8.178069E1,5.1272E2,6.2775433E2,6.521971E2,1.4097247E2,7.313183E2,1.25205E2,2.5E1,1.5410333E2,2.2E1,1.737E2,9.090845E0,1.440336E1,1.071E1,1.7186771E1,1.9505394E1,1.9473606E1,2.1E1,1.9405554E1,1E1,-4.905235E0,-4.641611E0,-4.3918467E0,-4.1596694E0,-3.953666E0,-3.7141254E0,-3.5699234E0,-3.3256238E0,-3.1250806E0,-2.879601E0,-2.6512682E0,-2.3584564E0,-2.15786E0,-1.7799801E0,-1.5853847E0,-1.0861672E0,-9.501444E-1,-4.796597E-1,-5.416092E-1,1.4109837E-1,1.6194304E0,6.3014585E-1,1.1600631E0,1.6711558E0,1.5437824E0,2.28822E0,2.4927268E0,3.1712613E0,3.2055066E0,3.9215448E0,4.072971E0,5.008899E0,5.470119E0,6.6258264E0,4.5028358E0,5.0229626E0,5.645771E0,7.3903017E0,8.040461E0,9.56424E0,7.2934546E0,9.134124E0,6.134539E0,1.0663156E1,9.27682E0,1.1880197E1,8.224444E0,1.3543744E1,1.0135995E1,1.6389563E1,2.3420744E1,1.901948E1,2.5949339E1,2.195515E1],"split_indices":[0,0,0,0,0,0,0,0,0,0,0,0,0,0,0,0,0,0,0,0,1,1,1,2,3,1,1,1,1,1,1,0,1,1,1,1,1,1,1,3,1,2,0,1,0,0,0,1,0,1,4,1,5,1,2,0,2,0,0,0,8,0,7,0,0,0,0,0,0,0,0,0,0,0,0,0,0,0,0,0,0,0,0,0,0,0,0,0,0,0,0,0,0,0,0,0,0,0,0,0,0,0,0,0,0,0,0,0,0,0,0,0,0,0,0,0,0],"split_type":[0,0,0,0,0,0,0,0,0,0,0,0,0,0,0,0,0,0,0,0,0,0,0,0,0,0,0,0,0,0,0,0,0,0,0,0,0,0,0,0,0,0,0,0,0,0,0,0,0,0,0,0,0,0,0,0,0,0,0,0,0,0,0,0,0,0,0,0,0,0,0,0,0,0,0,0,0,0,0,0,0,0,0,0,0,0,0,0,0,0,0,0,0,0,0,0,0,0,0,0,0,0,0,0,0,0,0,0,0,0,0,0,0,0,0,0,0],"sum_hessian":[4.8E4,4.1991E4,6.009E3,2.8492E4,1.3499E4,4.13E3,1.879E3,1.7068E4,1.1424E4,7.311E3,6.188E3,2.631E3,1.499E3,9.4E2,9.39E2,7.875E3,9.193E3,6.723E3,4.701E3,3.751E3,3.56E3,3.187E3,3.001E3,1.509E3,1.122E3,5.63E2,9.36E2,5.62E2,3.78E2,3.75E2,5.64E2,3.563E3,4.312E3,4.881E3,4.312E3,3.565E3,3.158E3,2.826E3,1.875E3,1.501E3,2.25E3,1.943E3,1.617E3,1.98E3,1.207E3,1.389E3,1.612E3,1.152E3,3.57E2,6.52E2,4.7E2,2.14E2,3.49E2,4.63E2,4.73E2,2.99E2,2.63E2,2.28E2,1.5E2,1.53E2,2.22E2,2.4E1,5.4E2,9.37E2,2.626E3,2.146E3,2.166E3,2.578E3,2.303E3,1.607E3,2.705E3,1.701E3,1.864E3,1.646E3,1.512E3,1.069E3,1.757E3,5.97E2,1.278E3,3.88E2,1.113E3,3.21E2,1.929E3,1.97E2,1.746E3,7.28E2,8.89E2,4.35E2,1.545E3,4.76E2,7.31E2,9.27E2,4.62E2,1.098E3,5.14E2,4.92E2,6.6E2,1.83E2,1.74E2,6.6E1,5.86E2,3.36E2,1.34E2,2.6E1,1.88E2,9E0,3.4E2,4.5E1,4.18E2,1E1,4.63E2,6E0,2.57E2,1.81E2,4.1E1,4.82E2,5.8E1],"tree_param":{"num_deleted":"0","num_feature":"12","num_nodes":"117","size_leaf_vector":"1"}},{"base_weights":[7.058732E-2,-2.983185E1,2.5344754E2,-6.151781E1,4.0644707E1,1.8840257E2,4.0770648E2,-7.387753E1,-3.6276737E1,1.7384844E1,7.425855E1,1.4672072E2,2.456486E2,3.4777377E2,4.66859E2,-8.287741E1,-6.451278E1,-4.520745E1,-2.204118E1,3.7793717E0,3.0982443E1,6.352826E1,9.798733E1,1.3136055E2,1.7355382E2,2.260291E2,2.7784265E2,3.207453E2,3.7380545E2,4.495153E2,2.577689E1,-8.7940636E1,-7.780383E1,-6.880464E1,-5.9486015E1,-4.9738426E1,-3.9320873E1,-2.7349085E1,-1.4075252E1,-1.4916981E0,1.0770964E1,2.2678928E1,3.742092E1,5.3607357E1,7.20679E1,1.0616889E2,8.3751976E1,1.19800316E2,1.4229524E2,1.5695538E2,1.8646324E2,1.8821938E2,2.3259335E2,1.2837209E1,2.9224048E2,3.2726263E2,1.3476402E1,3.8799228E2,1.6509592E1,4.2816934E2,4.8640854E2,-4.5429606E0,-4.2599807E0,-4.0467377E0,-3.800551E0,-3.5638645E0,-3.323038E0,-3.0719287E0,-2.834748E0,-2.6650758E0,-2.3841403E0,-2.36185E0,-1.8993148E0,-1.568253E0,-1.1483014E0,-8.4861803E-1,-3.9010397E-1,-6.9951594E-1,4.4307387E-3,2.5587404E-1,8.1628287E-1,8.5915774E-1,1.4248189E0,1.5875853E0,2.17261E0,2.4020708E0,3.0066319E0,3.3177738E0,4.0221133E0,4.6179647E0,5.888391E0,3.9592931E0,4.503684E0,4.850546E0,6.1725435E0,6.707912E0,7.960003E0,7.3124604E0,8.440622E0,8.351089E0,9.765487E0,1.1297625E1,8.978149E0,9.670833E0,1.1811362E1,1.0961145E1,1.4838686E1,1.704373E1,1.4688046E1,1.7723116E1,2.0672745E1,2.1861498E1,1.8394503E1,2.1918474E1,2.5816511E1],"categories":[],"categories_nodes":[],"categories_segments":[],"categories_sizes":[],"default_left":[0,0,0,0,0,0,0,0,0,0,0,0,0,0,0,0,0,0,0,0,0,0,0,0,0,0,0,0,0,0,0,0,0,0,0,0,0,0,0,0,0,0,0,0,0,0,0,0,0,0,0,0,0,0,0,0,0,0,0,0,0,0,0,0,0,0,0,0,0,0,0,0,0,0,0,0,0,0,0,0,0,0,0,0,0,0,0,0,0,0,0,0,0,0,0,0,0,0,0,0,0,0,0,0,0,0,0,0,0,0,0,0,0,0,0],"id":12,"left_children":[1,3,5,7,9,11,13,15,17,19,21,23,25,27,29,31,33,35,37,39,41,43,45,47,49,51,53,55,57,59,-1,61,63,65,67,69,71,73,75,77,79,81,83,85,87,89,91,93,95,97,99,101,103,-1,105,107,-1,109,-1,111,113,-1,-1,-1,-1,-1,-1,-1,-1,-1,-1,-1,-1,-1,-1,-1,-1,-1,-1,-1,-1,-1,-1,-1,-1,-1,-1,-1,-1,-1,-1,-1,-1,-1,-1,-1,-1,-1,-1,-1,-1,-1,-1,-1,-1,-1,-1,-1,-1,-1,-1,-1,-1,-1,-1],"loss_changes":[3.636914E8,9.588139E7,5.076432E7,9.237648E6,1.041065E7,8.472872E6,5.162464E6,1.670336E6,1.237033E6,1.456217E6,1.38042E6,8.28728E5,8.8528E5,4.07808E5,4.04E5,2.5352E5,2.06212E5,1.57622E5,1.5842775E5,1.4507014E5,2.09631E5,3.14094E5,1.88405E5,1.49558E5,1.31226E5,1.89024E5,9.6296E4,3.6964E4,1.04532E5,2.35112E5,0E0,3.2776E4,2.2312E4,2.5702E4,2.1024E4,2.21925E4,2.57475E4,3.89375E4,2.7201375E4,4.4343875E4,5.3050938E4,5.4565125E4,7.43915E4,6.0307E4,9.1008E4,1.60832E5,1.08505E4,4.1849E4,7.1078E4,1.7711E4,3.8926E4,6.4625E3,6.7488E4,0E0,4.351E4,4.944E4,0E0,9.0792E4,0E0,3.8496E4,5.97E4,0E0,0E0,0E0,0E0,0E0,0E0,0E0,0E0,0E0,0E0,0E0,0E0,0E0,0E0,0E0,0E0,0E0,0E0,0E0,0E0,0E0,0E0,0E0,0E0,0E0,0E0,0E0,0E0,0E0,0E0,0E0,0E0,0E0,0E0,0E0,0E0,0E0,0E0,0E0,0E0,0E0,0E0,0E0,0E0,0E0,0E0,0E0,0E0,0E0,0E0,0E0,0E0,0E0,0E0],"parents":[2147483647,0,0,1,1,2,2,3,3,4,4,5,5,6,6,7,7,8,8,9,9,10,10,11,11,12,12,13,13,14,14,15,15,16,16,17,17,18,18,19,19,20,20,21,21,22,22,23,23,24,24,25,25,26,26,27,27,28,28,29,29,31,31,32,32,33,33,34,34,35,35,36,36,37,37,38,38,39,39,40,40,41,41,42,42,43,43,44,44,45,45,46,46,47,47,48,48,49,49,50,50,51,51,52,52,54,54,55,55,57,57,59,59,60,60],"right_children":[2,4,6,8,10,12,14,16,18,20,22,24,26,28,30,32,34,36,38,40,42,44,46,48,50,52,54,56,58,60,-1,62,64,66,68,70,72,74,76,78,80,82,84,86,88,90,92,94,96,98,100,102,104,-1,106,108,-1,110,-1,112,114,-1,-1,-1,-1,-1,-1,-1,-1,-1,-1,-1,-1,-1,-1,-1,-1,-1,-1,-1,-1,-1,-1,-1,-1,-1,-1,-1,-1,-1,-1,-1,-1,-1,-1,-1,-1,-1,-1,-1,-1,-1,-1,-1,-1,-1,-1,-1,-1,-1,-1,-1,-1,-1,-1],"split_conditions":[7.6193164E2,3.1461505E2,1.432505E3,1.6148018E2,5.1272E2,1.04351E3,1.786295E3,9.4814674E1,2.3427798E2,4.076806E2,6.521971E2,9.031596E2,1.260295E3,1.5808806E3,2.171545E3,6.2472237E1,1.2768E2,1.9764023E2,2.795E2,3.66945E2,8.7E1,1.1035092E2,2.29E1,1.5410333E2,7.11E0,7.11E0,2.4872063E2,2.5E1,1.2E1,1.863E1,2.577689E1,4.4110397E1,1.4063655E1,2.1121914E1,2.873E1,3.243E1,3.3939697E1,2.37E0,3.39E0,5.4299644E1,7.662061E1,4.4420816E2,4.700251E2,5.6128864E2,6.052927E2,1.513E1,1.3429478E2,1.2000107E2,2.39E1,1.737E2,4.7E0,1E0,1.8412474E2,1.2837209E1,7.52E0,1.4E1,1.3476402E1,1.253E1,1.6509592E1,2.1E1,1.341E1,-4.5429606E0,-4.2599807E0,-4.0467377E0,-3.800551E0,-3.5638645E0,-3.323038E0,-3.0719287E0,-2.834748E0,-2.6650758E0,-2.3841403E0,-2.36185E0,-1.8993148E0,-1.568253E0,-1.1483014E0,-8.4861803E-1,-3.9010397E-1,-6.9951594E-1,4.4307387E-3,2.5587404E-1,8.1628287E-1,8.5915774E-1,1.4248189E0,1.5875853E0,2.17261E0,2.4020708E0,3.0066319E0,3.3177738E0,4.0221133E0,4.6179647E0,5.888391E0,3.9592931E0,4.503684E0,4.850546E0,6.1725435E0,6.707912E0,7.960003E0,7.3124604E0,8.440622E0,8.351089E0,9.765487E0,1.1297625E1,8.978149E0,9.670833E0,1.1811362E1,1.0961145E1,1.4838686E1,1.704373E1,1.4688046E1,1.7723116E1,2.0672745E1,2.1861498E1,1.8394503E1,2.1918474E1,2.5816511E1],"split_indices":[0,0,0,0,0,0,0,0,0,0,0,0,0,0,0,0,0,0,0,0,1,1,2,1,3,3,1,8,7,2,0,0,1,1,1,1,1,3,3,1,1,0,0,0,0,2,1,1,4,1,6,10,1,0,3,7,0,3,0,8,3,0,0,0,0,0,0,0,0,0,0,0,0,0,0,0,0,0,0,0,0,0,0,0,0,0,0,0,0,0,0,0,0,0,0,0,0,0,0,0,0,0,0,0,0,0,0,0,0,0,0,0,0,0,0],"split_type":[0,0,0,0,0,0,0,0,0,0,0,0,0,0,0,0,0,0,0,0,0,0,0,0,0,0,0,0,0,0,0,0,0,0,0,0,0,0,0,0,0,0,0,0,0,0,0,0,0,0,0,0,0,0,0,0,0,0,0,0,0,0,0,0,0,0,0,0,0,0,0,0,0,0,0,0,0,0,0,0,0,0,0,0,0,0,0,0,0,0,0,0,0,0,0,0,0,0,0,0,0,0,0,0,0,0,0,0,0,0,0,0,0,0,0],"sum_hessian":[4.8E4,4.2934E4,5.066E3,2.9618E4,1.3316E4,3.565E3,1.501E3,1.9881E4,9.737E3,7.871E3,5.445E3,2.065E3,1.5E3,7.49E2,7.52E2,1.0134E4,9.747E3,5.982E3,3.755E3,3.935E3,3.936E3,3.752E3,1.693E3,1.317E3,7.48E2,9.37E2,5.63E2,3.74E2,3.75E2,5.62E2,1.9E2,5.064E3,5.07E3,5.251E3,4.496E3,3.376E3,2.606E3,2.252E3,1.503E3,2.244E3,1.691E3,1.721E3,2.215E3,1.739E3,2.013E3,1.071E3,6.22E2,6.46E2,6.71E2,3.33E2,4.15E2,1.43E2,7.94E2,2.36E2,3.27E2,3.27E2,4.7E1,2.77E2,9.8E1,3.64E2,1.98E2,2.437E3,2.627E3,1.83E3,3.24E3,2.541E3,2.71E3,2.633E3,1.863E3,1.226E3,2.15E3,3.71E2,2.235E3,1.172E3,1.08E3,1.027E3,4.76E2,2.51E2,1.993E3,8.39E2,8.52E2,8.87E2,8.34E2,1.145E3,1.07E3,9.43E2,7.96E2,1.202E3,8.11E2,4.93E2,5.78E2,3.69E2,2.53E2,9.3E1,5.53E2,4.59E2,2.12E2,1.82E2,1.51E2,1.36E2,2.79E2,2.2E1,1.21E2,7.2E1,7.22E2,2.2E1,3.05E2,2.26E2,1.01E2,1.26E2,1.51E2,3.11E2,5.3E1,8.2E1,1.16E2],"tree_param":{"num_deleted":"0","num_feature":"12","num_nodes":"115","size_leaf_vector":"1"}},{"base_weights":[7.4333325E-2,-3.1219154E1,2.187226E2,-6.0269054E1,3.0095661E1,1.5258911E2,3.6392407E2,-7.2190765E1,-4.0908432E1,8.514813E0,5.864092E1,1.2009932E2,2.0949614E2,2.9747327E2,4.300584E2,-8.060126E1,-6.508815E1,-4.8789837E1,-2.8949959E1,-3.3267424E0,2.0947598E1,4.7528008E1,7.407705E1,1.0500714E2,1.402855E2,1.7982E2,2.2713524E2,2.7647012E2,3.2788828E2,3.8707776E2,4.579003E2,-8.4885124E1,-7.687139E1,-6.890587E1,-6.079201E1,-5.2692383E1,-4.3603306E1,-3.393838E1,-2.2441072E1,-9.120751E0,3.023782E0,1.3416111E1,2.6849598E1,3.992836E1,5.484817E1,6.7120575E1,8.308652E1,1.10812E2,4.3009143E0,1.304229E2,1.5366132E2,7.905085E0,1.8910432E2,2.1015785E2,2.4327527E2,1.2990435E1,2.9435635E2,3.4007452E2,1.4686594E1,1.7556656E1,4.1016473E2,1.8173216E1,4.6326254E2,-4.412622E0,-4.1708593E0,-3.9527154E0,-3.7416737E0,-3.5510354E0,-3.3302445E0,-3.1818182E0,-2.9485786E0,-2.7453153E0,-2.5082119E0,-2.3068244E0,-2.049492E0,-1.9517819E0,-1.5849622E0,-1.4379852E0,-9.734616E-1,-6.508111E-1,-2.0624892E-1,-5.4156143E-2,3.9220595E-1,1.4296488E-1,8.0516577E-1,1.0718149E0,1.609058E0,1.4197422E0,2.1375773E0,2.4548843E0,3.0393107E0,2.3991427E0,3.4693077E0,4.5822845E0,3.7863355E0,4.926207E0,5.9904566E0,5.9681487E0,6.9770637E0,7.3161163E0,8.907626E0,4.389236E0,9.509608E0,8.350153E0,1.0719703E1,7.681249E0,1.2273506E1,1.4063471E1,1.617926E1,1.7447964E1,1.4064429E1,1.8996826E1,2.2309822E1,1.8465656E1,2.339771E1],"categories":[],"categories_nodes":[],"categories_segments":[],"categories_sizes":[],"default_left":[0,0,0,0,0,0,0,0,0,0,0,0,0,0,0,0,0,0,0,0,0,0,0,0,0,0,0,0,0,0,0,0,0,0,0,0,0,0,0,0,0,0,0,0,0,0,0,0,0,0,0,0,0,0,0,0,0,0,0,0,0,0,0,0,0,0,0,0,0,0,0,0,0,0,0,0,0,0,0,0,0,0,0,0,0,0,0,0,0,0,0,0,0,0,0,0,0,0,0,0,0,0,0,0,0,0,0,0,0,0,0,0,0,0,0],"id":13,"left_children":[1,3,5,7,9,11,13,15,17,19,21,23,25,27,29,31,33,35,37,39,41,43,45,47,49,51,53,55,57,59,61,63,65,67,69,71,73,75,77,79,81,83,85,87,89,91,93,95,-1,97,99,-1,101,103,105,-1,107,109,-1,-1,111,-1,113,-1,-1,-1,-1,-1,-1,-1,-1,-1,-1,-1,-1,-1,-1,-1,-1,-1,-1,-1,-1,-1,-1,-1,-1,-1,-1,-1,-1,-1,-1,-1,-1,-1,-1,-1,-1,-1,-1,-1,-1,-1,-1,-1,-1,-1,-1,-1,-1,-1,-1,-1,-1],"loss_changes":[3.284425E8,7.47975E7,5.765661E7,6.573568E6,8.315917E6,7.612632E6,8.134064E6,1.048088E6,1.02223E6,1.1320712E6,9.93472E5,7.87116E5,7.44348E5,5.10464E5,9.47616E5,1.22404E5,1.52692E5,1.30178E5,1.3940725E5,1.4496308E5,1.6637488E5,1.859525E5,1.46785E5,1.56913E5,1.28104E5,8.3828E4,2.05624E5,9.1304E4,5.786E4,1.68004E5,1.17728E5,1.1154E4,1.332E4,1.9878E4,1.9595E4,1.8123E4,1.67515E4,2.663425E4,3.46675E4,4.003572E4,3.7226227E4,4.6761656E4,5.997675E4,5.29355E4,5.57485E4,5.6375E4,5.95185E4,1.15666E5,0E0,4.9198E4,5.8591E4,0E0,2.6289E4,4.902E4,5.5558E4,0E0,9.968E3,4.4432E4,0E0,0E0,7.3356E4,0E0,6.1232E4,0E0,0E0,0E0,0E0,0E0,0E0,0E0,0E0,0E0,0E0,0E0,0E0,0E0,0E0,0E0,0E0,0E0,0E0,0E0,0E0,0E0,0E0,0E0,0E0,0E0,0E0,0E0,0E0,0E0,0E0,0E0,0E0,0E0,0E0,0E0,0E0,0E0,0E0,0E0,0E0,0E0,0E0,0E0,0E0,0E0,0E0,0E0,0E0,0E0,0E0,0E0,0E0],"parents":[2147483647,0,0,1,1,2,2,3,3,4,4,5,5,6,6,7,7,8,8,9,9,10,10,11,11,12,12,13,13,14,14,15,15,16,16,17,17,18,18,19,19,20,20,21,21,22,22,23,23,24,24,25,25,26,26,27,27,28,28,29,29,30,30,31,31,32,32,33,33,34,34,35,35,36,36,37,37,38,38,39,39,40,40,41,41,42,42,43,43,44,44,45,45,46,46,47,47,49,49,50,50,52,52,53,53,54,54,56,56,57,57,60,60,62,62],"right_children":[2,4,6,8,10,12,14,16,18,20,22,24,26,28,30,32,34,36,38,40,42,44,46,48,50,52,54,56,58,60,62,64,66,68,70,72,74,76,78,80,82,84,86,88,90,92,94,96,-1,98,100,-1,102,104,106,-1,108,110,-1,-1,112,-1,114,-1,-1,-1,-1,-1,-1,-1,-1,-1,-1,-1,-1,-1,-1,-1,-1,-1,-1,-1,-1,-1,-1,-1,-1,-1,-1,-1,-1,-1,-1,-1,-1,-1,-1,-1,-1,-1,-1,-1,-1,-1,-1,-1,-1,-1,-1,-1,-1,-1,-1,-1,-1],"split_conditions":[6.935135E2,2.876823E2,1.311465E3,1.4342328E2,4.75799E2,9.653986E2,1.6853E3,8.234E1,2.0912807E2,3.80324E2,5.8474E2,8.114421E2,1.0820236E3,1.5021E3,1.90095E3,5.329385E1,1.1288E2,1.7572E2,2.4841476E2,3.3820782E2,8.178069E1,1.0172975E2,1.26862625E2,2.3115E1,7.11E0,7.11E0,2.3037259E2,2.7027356E2,1.3E1,3.34305E2,1.5045E1,3.383E1,6.74415E1,9.824714E1,2.324E1,3.0991104E1,3.7403553E1,1.6E0,4.84826E1,6.41E1,7.2464836E1,6.563598E1,4.3438165E2,8.079823E1,5.37795E2,3.31E0,2.2424442E1,1.4097247E2,4.3009143E0,1.7805817E1,1.7259365E1,7.905085E0,2.1E1,1.737E2,2.2E1,1.2990435E1,1.426E1,2.5E1,1.4686594E1,1.7556656E1,1.7805817E1,1.8173216E1,1.024E1,-4.412622E0,-4.1708593E0,-3.9527154E0,-3.7416737E0,-3.5510354E0,-3.3302445E0,-3.1818182E0,-2.9485786E0,-2.7453153E0,-2.5082119E0,-2.3068244E0,-2.049492E0,-1.9517819E0,-1.5849622E0,-1.4379852E0,-9.734616E-1,-6.508111E-1,-2.0624892E-1,-5.4156143E-2,3.9220595E-1,1.4296488E-1,8.0516577E-1,1.0718149E0,1.609058E0,1.4197422E0,2.1375773E0,2.4548843E0,3.0393107E0,2.3991427E0,3.4693077E0,4.5822845E0,3.7863355E0,4.926207E0,5.9904566E0,5.9681487E0,6.9770637E0,7.3161163E0,8.907626E0,4.389236E0,9.509608E0,8.350153E0,1.0719703E1,7.681249E0,1.2273506E1,1.4063471E1,1.617926E1,1.7447964E1,1.4064429E1,1.8996826E1,2.2309822E1,1.8465656E1,2.339771E1],"split_indices":[0,0,0,0,0,0,0,0,0,0,0,0,0,0,0,0,0,0,0,0,1,1,1,2,3,3,1,1,7,1,2,0,0,0,1,1,1,3,1,1,1,1,0,1,0,3,2,1,0,2,2,0,5,1,5,0,3,8,0,0,2,0,3,0,0,0,0,0,0,0,0,0,0,0,0,0,0,0,0,0,0,0,0,0,0,0,0,0,0,0,0,0,0,0,0,0,0,0,0,0,0,0,0,0,0,0,0,0,0,0,0,0,0,0,0],"split_type":[0,0,0,0,0,0,0,0,0,0,0,0,0,0,0,0,0,0,0,0,0,0,0,0,0,0,0,0,0,0,0,0,0,0,0,0,0,0,0,0,0,0,0,0,0,0,0,0,0,0,0,0,0,0,0,0,0,0,0,0,0,0,0,0,0,0,0,0,0,0,0,0,0,0,0,0,0,0,0,0,0,0,0,0,0,0,0,0,0,0,0,0,0,0,0,0,0,0,0,0,0,0,0,0,0,0,0,0,0,0,0,0,0,0,0],"sum_hessian":[4.8E4,4.1991E4,6.009E3,2.8492E4,1.3499E4,4.13E3,1.879E3,1.7632E4,1.086E4,7.688E3,5.811E3,2.631E3,1.499E3,9.4E2,9.39E2,8.068E3,9.564E3,6.544E3,4.316E3,3.938E3,3.75E3,3.381E3,2.43E3,1.509E3,1.122E3,5.63E2,9.36E2,5.62E2,3.78E2,3.75E2,5.64E2,3.745E3,4.323E3,5.056E3,4.508E3,3.729E3,2.815E3,2.441E3,1.875E3,2.059E3,1.879E3,1.649E3,2.101E3,1.662E3,1.719E3,1.376E3,1.054E3,1.152E3,3.57E2,6.52E2,4.7E2,1.74E2,3.89E2,4.63E2,4.73E2,2.99E2,2.63E2,2.72E2,1.06E2,1.53E2,2.22E2,3.4E1,5.3E2,1.119E3,2.626E3,2.069E3,2.254E3,2.619E3,2.437E3,1.746E3,2.762E3,1.977E3,1.752E3,1.421E3,1.394E3,7.4E2,1.701E3,5.97E2,1.278E3,1.156E3,9.03E2,1.015E3,8.64E2,3.35E2,1.314E3,1.045E3,1.056E3,3.29E2,1.333E3,8.78E2,8.41E2,1.48E2,1.228E3,4.82E2,5.72E2,4.92E2,6.6E2,3.01E2,3.51E2,3.67E2,1.03E2,5E0,3.84E2,4.5E1,4.18E2,1.3E1,4.6E2,1.89E2,7.4E1,2.32E2,4E1,1.27E2,9.5E1,2.9E1,5.01E2],"tree_param":{"num_deleted":"0","num_feature":"12","num_nodes":"115","size_leaf_vector":"1"}},{"base_weights":[7.676549E-2,-2.7478092E1,2.2431863E2,-5.61115E1,3.4509293E1,1.614449E2,3.5643265E2,-6.7324135E1,-3.489264E1,1.2621287E1,6.3376743E1,1.2980457E2,2.1571405E2,3.0382462E2,4.2170187E2,-7.527654E1,-5.936303E1,-4.2776848E1,-2.2438272E1,2.2022767E0,2.5944115E1,5.1829624E1,8.168753E1,1.1343158E2,1.525364E2,1.9899509E2,2.3775017E2,2.690879E2,3.263638E2,4.0565057E2,2.3340376E1,-7.95448E1,-7.0821144E1,-6.2869053E1,-5.4726063E1,-4.6737747E1,-3.7449028E1,-2.706132E1,-1.4971674E1,-4.212697E0,8.080503E0,2.0313206E1,3.258171E1,4.452822E1,6.0057415E1,7.436326E1,9.450137E1,1.0705602E2,1.2868964E2,1.4138225E2,1.680408E2,1.75845E2,2.0978952E2,1.02855215E1,2.441845E2,1.2202035E1,2.8133218E2,3.0195187E2,3.4970877E2,3.8577628E2,4.3925876E2,-4.112015E0,-3.86019E0,-3.6674225E0,-3.4502628E0,-3.2744274E0,-3.0428593E0,-2.8477485E0,-2.6436589E0,-2.446671E0,-2.1928828E0,-1.963425E0,-1.6113366E0,-1.4726447E0,-1.0605019E0,-9.685816E-1,-5.4315746E-1,-3.9268726E-1,2.9747356E-2,1.5004963E0,3.437483E-1,1.5869026E0,9.005949E-1,1.8723754E0,1.320553E0,1.9374236E0,2.492308E0,2.9498565E0,4.1280475E0,3.0676746E0,3.9193056E0,5.1233735E0,3.9199364E0,4.2804475E0,5.5353694E0,6.021003E0,7.054528E0,5.8422904E0,7.270295E0,8.666151E0,6.844167E0,7.9015307E0,9.425624E0,1.0091678E1,1.1787183E1,1.1273463E1,1.3046091E1,1.4470502E1,1.1021167E1,1.1786939E1,1.5303754E1,1.785999E1,1.3589046E1,1.9514162E1,1.4459643E1,1.9699018E1,2.3376436E1],"categories":[],"categories_nodes":[],"categories_segments":[],"categories_sizes":[],"default_left":[0,0,0,0,0,0,0,0,0,0,0,0,0,0,0,0,0,0,0,0,0,0,0,0,0,0,0,0,0,0,0,0,0,0,0,0,0,0,0,0,0,0,0,0,0,0,0,0,0,0,0,0,0,0,0,0,0,0,0,0,0,0,0,0,0,0,0,0,0,0,0,0,0,0,0,0,0,0,0,0,0,0,0,0,0,0,0,0,0,0,0,0,0,0,0,0,0,0,0,0,0,0,0,0,0,0,0,0,0,0,0,0,0,0,0,0,0],"id":14,"left_children":[1,3,5,7,9,11,13,15,17,19,21,23,25,27,29,31,33,35,37,39,41,43,45,47,49,51,53,55,57,59,-1,61,63,65,67,69,71,73,75,77,79,81,83,85,87,89,91,93,95,97,99,101,103,-1,105,-1,107,109,111,113,115,-1,-1,-1,-1,-1,-1,-1,-1,-1,-1,-1,-1,-1,-1,-1,-1,-1,-1,-1,-1,-1,-1,-1,-1,-1,-1,-1,-1,-1,-1,-1,-1,-1,-1,-1,-1,-1,-1,-1,-1,-1,-1,-1,-1,-1,-1,-1,-1,-1,-1,-1,-1,-1,-1,-1,-1],"loss_changes":[2.9660208E8,7.587757E7,4.357653E7,6.95488E6,8.534242E6,6.086576E6,5.685088E6,1.20672E6,9.91966E5,1.0665642E6,1.227386E6,8.20868E5,4.35324E5,6.48928E5,3.55816E5,1.763E5,1.5206E5,1.28898E5,1.3497625E5,1.6267152E5,1.25369E5,2.12091E5,2.04233E5,1.1395E5,1.38802E5,1.50778E5,6.5216E4,4.6654E4,2.16972E5,2.06592E5,0E0,2.443E4,1.6462E4,2.4682E4,1.4027E4,2.0284E4,2.386675E4,3.3254125E4,2.6941688E4,3.6117203E4,5.9302797E4,4.7463938E4,4.542975E4,5.6406E4,3.51665E4,7.0398E4,9.6511E4,6.3509E4,2.2184E4,3.7606E4,4.0132E4,2.5497E4,5.711E4,0E0,8.5576E4,0E0,5.7244E4,5.38E3,6.812E4,4.4712E4,7.4364E4,0E0,0E0,0E0,0E0,0E0,0E0,0E0,0E0,0E0,0E0,0E0,0E0,0E0,0E0,0E0,0E0,0E0,0E0,0E0,0E0,0E0,0E0,0E0,0E0,0E0,0E0,0E0,0E0,0E0,0E0,0E0,0E0,0E0,0E0,0E0,0E0,0E0,0E0,0E0,0E0,0E0,0E0,0E0,0E0,0E0,0E0,0E0,0E0,0E0,0E0,0E0,0E0,0E0,0E0,0E0,0E0],"parents":[2147483647,0,0,1,1,2,2,3,3,4,4,5,5,6,6,7,7,8,8,9,9,10,10,11,11,12,12,13,13,14,14,15,15,16,16,17,17,18,18,19,19,20,20,21,21,22,22,23,23,24,24,25,25,26,26,27,27,28,28,29,29,31,31,32,32,33,33,34,34,35,35,36,36,37,37,38,38,39,39,40,40,41,41,42,42,43,43,44,44,45,45,46,46,47,47,48,48,49,49,50,50,51,51,52,52,54,54,56,56,57,57,58,58,59,59,60,60],"right_children":[2,4,6,8,10,12,14,16,18,20,22,24,26,28,30,32,34,36,38,40,42,44,46,48,50,52,54,56,58,60,-1,62,64,66,68,70,72,74,76,78,80,82,84,86,88,90,92,94,96,98,100,102,104,-1,106,-1,108,110,112,114,116,-1,-1,-1,-1,-1,-1,-1,-1,-1,-1,-1,-1,-1,-1,-1,-1,-1,-1,-1,-1,-1,-1,-1,-1,-1,-1,-1,-1,-1,-1,-1,-1,-1,-1,-1,-1,-1,-1,-1,-1,-1,-1,-1,-1,-1,-1,-1,-1,-1,-1,-1,-1,-1,-1,-1,-1],"split_conditions":[7.4572345E2,3.0569E2,1.3668722E3,1.5511253E2,4.96455E2,1.04351E3,1.786295E3,9.154E1,2.257111E2,4.076806E2,6.193995E2,8.7782275E2,1.2136986E3,1.5021E3,2.171545E3,6.1079113E1,1.25163475E2,1.909E2,2.7079E2,3.55045E2,8.984312E1,1.0920675E2,1.3847748E2,7.11E0,1.8969867E2,2.07115E2,8.37E0,1.326E1,3.147E2,1.8535507E1,2.3340376E1,4.28903E1,1.4063655E1,2.0059214E1,2.6079027E1,3.43769E1,2.16E0,2.63E0,2.73E0,6.8171715E1,1.31391115E1,1.4285713E1,1.3E1,5.37795E2,1.8412474E2,1.08E2,2.29E1,1.5045E1,1.394E1,1.435424E2,2.4872063E2,1.1E1,1.426E1,1.02855215E1,1.2641956E1,1.2202035E1,2.8E1,2.3037259E2,2.2E1,1.2E1,1.341E1,-4.112015E0,-3.86019E0,-3.6674225E0,-3.4502628E0,-3.2744274E0,-3.0428593E0,-2.8477485E0,-2.6436589E0,-2.446671E0,-2.1928828E0,-1.963425E0,-1.6113366E0,-1.4726447E0,-1.0605019E0,-9.685816E-1,-5.4315746E-1,-3.9268726E-1,2.9747356E-2,1.5004963E0,3.437483E-1,1.5869026E0,9.005949E-1,1.8723754E0,1.320553E0,1.9374236E0,2.492308E0,2.9498565E0,4.1280475E0,3.0676746E0,3.9193056E0,5.1233735E0,3.9199364E0,4.2804475E0,5.5353694E0,6.021003E0,7.054528E0,5.8422904E0,7.270295E0,8.666151E0,6.844167E0,7.9015307E0,9.425624E0,1.0091678E1,1.1787183E1,1.1273463E1,1.3046091E1,1.4470502E1,1.1021167E1,1.1786939E1,1.5303754E1,1.785999E1,1.3589046E1,1.9514162E1,1.4459643E1,1.9699018E1,2.3376436E1],"split_indices":[0,0,0,0,0,0,0,0,0,0,0,0,0,0,0,0,0,0,0,0,1,1,1,3,1,1,3,2,1,2,0,0,1,1,1,1,3,3,3,1,2,2,7,0,1,1,2,2,2,1,1,11,3,0,2,0,8,1,11,7,3,0,0,0,0,0,0,0,0,0,0,0,0,0,0,0,0,0,0,0,0,0,0,0,0,0,0,0,0,0,0,0,0,0,0,0,0,0,0,0,0,0,0,0,0,0,0,0,0,0,0,0,0,0,0,0,0],"split_type":[0,0,0,0,0,0,0,0,0,0,0,0,0,0,0,0,0,0,0,0,0,0,0,0,0,0,0,0,0,0,0,0,0,0,0,0,0,0,0,0,0,0,0,0,0,0,0,0,0,0,0,0,0,0,0,0,0,0,0,0,0,0,0,0,0,0,0,0,0,0,0,0,0,0,0,0,0,0,0,0,0,0,0,0,0,0,0,0,0,0,0,0,0,0,0,0,0,0,0,0,0,0,0,0,0,0,0,0,0,0,0,0,0,0,0,0,0],"sum_hessian":[4.8E4,4.2748E4,5.252E3,2.9241E4,1.3507E4,3.56E3,1.692E3,1.913E4,1.0111E4,7.683E3,5.824E3,2.251E3,1.309E3,9.4E2,7.52E2,9.566E3,9.564E3,6.19E3,3.921E3,4.312E3,3.371E3,3.574E3,2.25E3,1.312E3,9.39E2,7.5E2,5.59E2,3.75E2,5.65E2,5.62E2,1.9E2,4.877E3,4.689E3,5.439E3,4.125E3,3.546E3,2.644E3,2.42E3,1.501E3,2.062E3,2.25E3,1.826E3,1.545E3,1.897E3,1.677E3,1.436E3,8.14E2,9.31E2,3.81E2,5.52E2,3.87E2,2.44E2,5.06E2,9.9E1,4.6E2,1.3E2,2.45E2,2.83E2,2.82E2,3.61E2,2.01E2,2.251E3,2.626E3,1.944E3,2.745E3,2.349E3,3.09E3,1.859E3,2.266E3,2.003E3,1.543E3,1.956E3,6.88E2,1.715E3,7.05E2,7.23E2,7.78E2,1.173E3,8.89E2,1.16E2,2.134E3,3.04E2,1.522E3,8.61E2,6.84E2,9.13E2,9.84E2,1.605E3,7.2E1,3.43E2,1.093E3,5.41E2,2.73E2,1.39E2,7.92E2,2.35E2,1.46E2,8.2E1,4.7E2,3.27E2,6E1,1.07E2,1.37E2,3.94E2,1.12E2,2.24E2,2.36E2,2.13E2,3.2E1,2E1,2.63E2,2.54E2,2.8E1,3.42E2,1.9E1,8.3E1,1.18E2],"tree_param":{"num_deleted":"0","num_feature":"12","num_nodes":"117","size_leaf_vector":"1"}},{"base_weights":[7.954136E-2,-2.8182116E1,1.9754433E2,-5.4397907E1,2.715083E1,1.3780524E2,3.287064E2,-6.5623375E1,-3.7622253E1,6.5277615E0,5.1511585E1,1.0845315E2,1.892165E2,2.6858838E2,3.8853867E2,-7.32688E1,-5.962765E1,-4.460274E1,-2.6118452E1,-3.5304983E0,1.712368E1,3.8691727E1,6.355173E1,9.661632E1,1.2965666E2,1.623749E2,2.051711E2,2.4983804E2,2.957331E2,3.495642E2,4.1378796E2,-7.723864E1,-7.031448E1,-6.3289936E1,-5.6084625E1,-4.804084E1,-3.9344296E1,-3.0643826E1,-2.0213827E1,-9.339605E0,1.21977E0,8.091834E0,2.1248262E1,3.071891E1,4.3324574E1,5.455856E1,7.0790794E1,1.01873276E2,7.754381E1,1.2432321E2,1.4992072E2,7.1192675E0,1.7092822E2,1.8965977E2,2.1992232E2,2.3444984E2,2.6637827E2,3.047597E2,1.2818603E1,1.5825647E1,3.708213E2,1.7512941E1,4.2106302E2,-4.0337973E0,-3.8078E0,-3.6301868E0,-3.4396331E0,-3.2947006E0,-3.084833E0,-2.955485E0,-2.7307155E0,-2.532477E0,-2.3076987E0,-1.9220589E0,-2.2970195E0,-1.9724417E0,-1.47357E0,-1.2106274E0,-8.077465E-1,-1.0016404E0,-3.9280757E-1,-4.0179354E-1,1.537246E-1,6.7227215E-2,5.7341015E-1,8.2079357E-1,1.310169E0,1.3299739E0,1.8891706E0,1.8004636E0,2.388825E0,1.9773731E0,2.843714E0,3.956412E0,3.2308776E0,4.1582165E0,5.3474016E0,2.5241516E0,3.900119E0,6.4662957E0,5.5636554E0,5.0125866E0,7.8061953E0,3.9059944E0,8.596531E0,7.5007644E0,9.677975E0,1.0242584E1,1.1737979E1,8.878551E0,1.1851452E1,1.2691033E1,1.4731958E1,1.5589093E1,1.2684936E1,1.6911383E1,2.0149775E1,2.1734432E1,1.854375E1],"categories":[],"categories_nodes":[],"categories_segments":[],"categories_sizes":[],"default_left":[0,0,0,0,0,0,0,0,0,0,0,0,0,0,0,0,0,0,0,0,0,0,0,0,0,0,0,0,0,0,0,0,0,0,0,0,0,0,0,0,0,0,0,0,0,0,0,0,0,0,0,0,0,0,0,0,0,0,0,0,0,0,0,0,0,0,0,0,0,0,0,0,0,0,0,0,0,0,0,0,0,0,0,0,0,0,0,0,0,0,0,0,0,0,0,0,0,0,0,0,0,0,0,0,0,0,0,0,0,0,0,0,0,0,0,0,0,0,0],"id":15,"left_children":[1,3,5,7,9,11,13,15,17,19,21,23,25,27,29,31,33,35,37,39,41,43,45,47,49,51,53,55,57,59,61,63,65,67,69,71,73,75,77,79,81,83,85,87,89,91,93,95,97,99,101,-1,103,105,107,109,111,113,-1,-1,115,-1,117,-1,-1,-1,-1,-1,-1,-1,-1,-1,-1,-1,-1,-1,-1,-1,-1,-1,-1,-1,-1,-1,-1,-1,-1,-1,-1,-1,-1,-1,-1,-1,-1,-1,-1,-1,-1,-1,-1,-1,-1,-1,-1,-1,-1,-1,-1,-1,-1,-1,-1,-1,-1,-1,-1,-1,-1],"loss_changes":[2.6788389E8,6.0914944E7,4.7046064E7,5.363176E6,6.781977E6,6.213264E6,6.658E6,7.78064E5,9.16286E5,7.793479E5,9.5283E5,6.48058E5,6.09056E5,4.05056E5,7.804E5,8.2508E4,1.20652E5,1.26635E5,1.1473375E5,1.0354714E5,1.324845E5,1.094795E5,2.03815E5,1.61847E5,8.2954E4,7.2093E4,1.72684E5,8.0844E4,5.6528E4,1.468E5,1.13648E5,5.724E3,1.0022E4,1.543E4,1.8451E4,1.8798E4,1.5009E4,2.404675E4,3.0057125E4,2.6619156E4,3.5473812E4,2.5454117E4,5.80915E4,3.1181438E4,5.99945E4,4.7355E4,8.5678E4,1.16811E5,6.535E2,3.4574E4,4.31965E4,0E0,2.285E4,4.2699E4,5.7898E4,1.92E3,1.8904E4,2.9544E4,0E0,0E0,9.7548E4,0E0,1.8208E5,0E0,0E0,0E0,0E0,0E0,0E0,0E0,0E0,0E0,0E0,0E0,0E0,0E0,0E0,0E0,0E0,0E0,0E0,0E0,0E0,0E0,0E0,0E0,0E0,0E0,0E0,0E0,0E0,0E0,0E0,0E0,0E0,0E0,0E0,0E0,0E0,0E0,0E0,0E0,0E0,0E0,0E0,0E0,0E0,0E0,0E0,0E0,0E0,0E0,0E0,0E0,0E0,0E0,0E0,0E0,0E0],"parents":[2147483647,0,0,1,1,2,2,3,3,4,4,5,5,6,6,7,7,8,8,9,9,10,10,11,11,12,12,13,13,14,14,15,15,16,16,17,17,18,18,19,19,20,20,21,21,22,22,23,23,24,24,25,25,26,26,27,27,28,28,29,29,30,30,31,31,32,32,33,33,34,34,35,35,36,36,37,37,38,38,39,39,40,40,41,41,42,42,43,43,44,44,45,45,46,46,47,47,48,48,49,49,50,50,52,52,53,53,54,54,55,55,56,56,57,57,60,60,62,62],"right_children":[2,4,6,8,10,12,14,16,18,20,22,24,26,28,30,32,34,36,38,40,42,44,46,48,50,52,54,56,58,60,62,64,66,68,70,72,74,76,78,80,82,84,86,88,90,92,94,96,98,100,102,-1,104,106,108,110,112,114,-1,-1,116,-1,118,-1,-1,-1,-1,-1,-1,-1,-1,-1,-1,-1,-1,-1,-1,-1,-1,-1,-1,-1,-1,-1,-1,-1,-1,-1,-1,-1,-1,-1,-1,-1,-1,-1,-1,-1,-1,-1,-1,-1,-1,-1,-1,-1,-1,-1,-1,-1,-1,-1,-1,-1,-1,-1,-1,-1,-1],"split_conditions":[6.935135E2,2.876823E2,1.311465E3,1.396376E2,4.6452695E2,9.653986E2,1.6853E3,7.886396E1,2.0912807E2,3.7604938E2,5.55795E2,8.3074585E2,1.0820236E3,1.5021E3,1.90095E3,4.93E1,1.07180534E2,1.7572E2,2.4841476E2,3.29245E2,7.572529E1,9.284931E1,1.1714009E2,2.3115E1,2.66E1,7.11E0,2.3037259E2,2.7027356E2,1.4E1,3.34305E2,3E0,3.0648064E1,1.1660446E1,1.67028E1,2.1660679E1,2.873E1,6.5E1,3.5159138E1,5.262958E1,4.9888966E1,5.9210957E1,6.563598E1,4.255E2,2.7030544E1,5.020651E2,3.31E0,2.1539288E1,1.26862625E2,3.24E0,1.7E1,1.4882826E2,7.1192675E0,2.1E1,1.737E2,5.5E0,1.9514337E2,1.426E1,2.5E1,1.2818603E1,1.5825647E1,1.426E1,1.7512941E1,9E0,-4.0337973E0,-3.8078E0,-3.6301868E0,-3.4396331E0,-3.2947006E0,-3.084833E0,-2.955485E0,-2.7307155E0,-2.532477E0,-2.3076987E0,-1.9220589E0,-2.2970195E0,-1.9724417E0,-1.47357E0,-1.2106274E0,-8.077465E-1,-1.0016404E0,-3.9280757E-1,-4.0179354E-1,1.537246E-1,6.7227215E-2,5.7341015E-1,8.2079357E-1,1.310169E0,1.3299739E0,1.8891706E0,1.8004636E0,2.388825E0,1.9773731E0,2.843714E0,3.956412E0,3.2308776E0,4.1582165E0,5.3474016E0,2.5241516E0,3.900119E0,6.4662957E0,5.5636554E0,5.0125866E0,7.8061953E0,3.9059944E0,8.596531E0,7.5007644E0,9.677975E0,1.0242584E1,1.1737979E1,8.878551E0,1.1851452E1,1.2691033E1,1.4731958E1,1.5589093E1,1.2684936E1,1.6911383E1,2.0149775E1,2.1734432E1,1.854375E1],"split_indices":[0,0,0,0,0,0,0,0,0,0,0,0,0,0,0,0,0,0,0,0,1,1,1,2,4,3,1,1,7,1,7,0,1,1,1,1,5,1,1,1,1,1,0,2,0,3,2,1,3,11,1,0,5,1,6,1,3,8,0,0,3,0,7,0,0,0,0,0,0,0,0,0,0,0,0,0,0,0,0,0,0,0,0,0,0,0,0,0,0,0,0,0,0,0,0,0,0,0,0,0,0,0,0,0,0,0,0,0,0,0,0,0,0,0,0,0,0,0,0],"split_type":[0,0,0,0,0,0,0,0,0,0,0,0,0,0,0,0,0,0,0,0,0,0,0,0,0,0,0,0,0,0,0,0,0,0,0,0,0,0,0,0,0,0,0,0,0,0,0,0,0,0,0,0,0,0,0,0,0,0,0,0,0,0,0,0,0,0,0,0,0,0,0,0,0,0,0,0,0,0,0,0,0,0,0,0,0,0,0,0,0,0,0,0,0,0,0,0,0,0,0,0,0,0,0,0,0,0,0,0,0,0,0,0,0,0,0,0,0,0,0],"sum_hessian":[4.8E4,4.1991E4,6.009E3,2.8492E4,1.3499E4,4.13E3,1.879E3,1.7068E4,1.1424E4,7.311E3,6.188E3,2.631E3,1.499E3,9.4E2,9.39E2,7.497E3,9.571E3,7.108E3,4.316E3,3.751E3,3.56E3,2.999E3,3.189E3,1.692E3,9.39E2,5.63E2,9.36E2,5.62E2,3.78E2,3.75E2,5.64E2,3.188E3,4.309E3,4.698E3,4.873E3,4.293E3,2.815E3,2.441E3,1.875E3,1.687E3,2.064E3,1.117E3,2.443E3,1.105E3,1.894E3,1.426E3,1.763E3,1.323E3,3.69E2,7.49E2,1.9E2,1.74E2,3.89E2,4.63E2,4.73E2,2.99E2,2.63E2,3.02E2,7.6E1,1.53E2,2.22E2,6.3E1,5.01E2,7.46E2,2.442E3,1.702E3,2.607E3,1.768E3,2.93E3,1.581E3,3.292E3,1.791E3,2.502E3,2.482E3,3.33E2,2.83E2,2.158E3,9.42E2,9.33E2,2.04E2,1.483E3,3.44E2,1.72E3,3.73E2,7.44E2,1.239E3,1.204E3,7.01E2,4.04E2,7.2E2,1.174E3,1.93E2,1.233E3,7.45E2,1.018E3,2.86E2,1.037E3,8E0,3.61E2,5.35E2,2.14E2,2.3E1,1.67E2,5E0,3.84E2,4.5E1,4.18E2,2.42E2,2.31E2,1.6E1,2.83E2,1.89E2,7.4E1,2.61E2,4.1E1,1.16E2,1.06E2,3.88E2,1.13E2],"tree_param":{"num_deleted":"0",